solver_type L2R_LR
nr_class 2
label 1 2
nr_feature 24415
bias -1
w
-0.6643651619724613 
-0.1206276877561063 
-0.5560741172150401 
1.27489807692512 
-0.4470358836675272 
-2.473990171340518 
-1.692966210426596 
-1.304388765443424 
-0.5757265540655204 
0.5890651285218481 
0.7953992186098383 
-0.2442085069508409 
0.9090800357496669 
-1.102552273472577 
0.3856231906441603 
-1.829983544661484 
-0.1522030713987549 
-1.157020808933503 
0.2955020552719676 
-0.3148501940462826 
-0.8575277475501499 
-0.9651078396632494 
-0.1121656486158303 
0.1947922799144516 
-1.040416568445777 
-1.305285309135662 
-1.7531199337816 
-1.469994085405036 
1.712528455228047 
-0.4254545274032909 
0.5072989412542623 
-1.573316405098145 
-0.3798838493774947 
-1.322983322785962 
-0.4448084246546202 
0.2603426939122202 
1.819108957834677 
-0.01819508036902341 
-0.41472389554481 
0 
-1.807177915070082 
-2.105925486703793 
-0.570860537119495 
0.2949423420029373 
0.5955776023079957 
0.2630837889104823 
-0.2942803895960119 
-2.141253171495807 
-0.1587425354430659 
0.6038415135926135 
0.0140350350002733 
-1.124360768841238 
-0.2317079138086547 
-0.1492407197075467 
-1.303829019161373 
-0.31867372996396 
-0.09219767644118976 
-0.3294114961234514 
-1.544914978915246 
-0.4274100008352469 
-0.5027672125356877 
-0.412115747471149 
-0.5448655021806231 
-0.3825974489068315 
-1.245888651389254 
-0.9434939560577887 
0.07714129828587292 
-0.4413598643747481 
-1.452991273201794 
-0.8254578308845575 
0.002785771405801562 
-0.09977169587668487 
0.2795853147639018 
0.4989671979103623 
1.95443063873753 
-1.934784787084307 
-0.7496107403028459 
0.441563197490665 
0.9297303967081104 
0.2243000456654737 
-0.491190634475134 
-0.2720369365974725 
-0.9796855742652058 
-1.977311375020155 
-0.4826296485602177 
1.818581603566591 
-1.983685227705306 
-0.6157700508722273 
-1.1339669293116 
-0.2705605952653212 
-1.08896813084084 
-0.1198491390512086 
0.401527193032068 
-0.1576938326386311 
0.8915712779273944 
-0.2489768078592154 
-0.009709015129576008 
-0.09886686960337036 
-0.5350882717348152 
0.4622234017241313 
0.4017246745140308 
0.3049260193516621 
-0.1204920638649477 
-0.9044009579655508 
-2.137049662344747 
-0.6057043053551637 
-1.314042617294847 
-0.8782965185549663 
-1.156685500074044 
-0.6671316304026885 
-0.4687425623991785 
-0.5814246131642353 
-1.655365651196486 
-0.3516347605404884 
-0.03934627065811151 
0.2211178163842491 
-0.9077307022757389 
0.4150801809468345 
0.09486114254289277 
-0.8154772225478865 
-0.8281832893942295 
-0.4325972831522965 
1.680709824422405 
-0.1817406670047889 
-0.09623903906775959 
0.3390694147502479 
-0.08317466983166112 
-0.1347346868023025 
-0.4763788514601687 
-0.3174818958587622 
-0.02763029424216057 
-0.6628191635462983 
0.8581806714009138 
-0.4903039191276158 
-0.190808401650905 
-1.088185950878029 
0.04136810437007722 
2.288499220464032 
-0.08226327236767778 
0.1122469544478681 
-0.3311407906957057 
-0.143926827389971 
-0.2462497295988398 
-0.8838958350680186 
-0.05565232375085447 
-0.5624606127721978 
-0.5947055848042603 
-0.0256004183549945 
0.8783310051425258 
-0.4014890731406351 
-1.130079001773856 
-0.3036852972407781 
-0.5953804159445456 
-0.02368992759579711 
0.2130513852600675 
0.5345283502542151 
-0.2576559296349918 
1.123984771701234 
-0.1899810751992209 
0.3807738185763792 
-2.099029124324275 
-0.3976947410353543 
0.1401217972379097 
-0.2833892235529915 
-0.2682429095702725 
-0.3795888411881331 
-0.2675043778709835 
-0.8788168792027773 
-0.03234537828831088 
-0.1394663943099614 
-0.2551028175688409 
1.236703134092049 
-0.8335448827411935 
-0.3775378694659686 
0.4441333343198949 
-0.3881207096110456 
-0.2677616414756954 
-0.1598765228427456 
0.9204517758289604 
-0.3611361674595736 
-0.3611361674595736 
-0.3611361674595736 
-0.07129447357755732 
-0.7963284122549454 
-0.3977428516375086 
-0.003597714670722387 
0.1003029526874642 
0.1003029526874642 
0.02505021399546843 
-0.5292024465313741 
1.958959214112749 
0.2573212154786856 
-0.5625952292888965 
-0.2315717333936649 
-0.2099224499384564 
-0.01495507548908496 
0.4687031349107517 
0.06643539123987172 
-0.433453008562918 
0.2347479627896506 
0.1208370593646403 
-0.2859216387399178 
-0.2546001693647233 
-0.2002741017565732 
0.6464940443196962 
-0.4010665139642754 
-0.1262222338796057 
-1.310694296129963 
-0.1895606862093391 
-0.5749904139304499 
-0.08221633469404396 
-0.4750945116603671 
0.3509839990948871 
0.7874312550511751 
0.3602415804438333 
0.6466426591306735 
1.128961613748948 
-0.1186184152588354 
0.4245081045680522 
-1.168125323105219 
-0.3277509895408275 
-0.2384421800735803 
-1.369807632243664 
0.8725692964141761 
-0.1644362791600456 
-0.4078310392667573 
0.9421755333467503 
-0.9113245369979454 
0.1185174555171361 
2.097186529011632 
0.1488466606496476 
-0.1830407971785374 
0.06259089279332498 
-0.4332435588408009 
-0.2486768804992413 
0.6382497288548474 
-0.05689208922065598 
1.099878627380777 
-0.5246417337308594 
-0.8029394915245587 
-1.332757267424595 
-1.116930040670422 
-0.1450352486579349 
-0.03527826540179984 
-0.1365795918764715 
0.6988028519409668 
-0.5831485647393425 
-0.4781127473655368 
-2.564528257826189 
-0.6472899294050171 
-0.9967669819521704 
-1.068439244939666 
-0.2652624767416517 
-0.9535375430815195 
-1.930776765132984 
0.5551041530147804 
-0.9269242756852425 
0.5977043377002795 
-0.4495037284212142 
-0.2854552027329266 
-0.4110157896180265 
-0.2000973180279738 
-0.6915212278246121 
0.2611776027317609 
1.191930843108181 
-0.676194257364206 
1.020226833165278 
-0.3886238530619531 
-0.1623337576413209 
-0.02006138121375786 
-0.2654449532895489 
-0.2909130532938652 
0.7692738151272606 
-0.2365316938827266 
0.06857336853930512 
-0.09320098715131894 
-0.4045794821125868 
-1.636737449612494 
-0.06516399705679174 
0.07863032946479273 
0.2582206325335149 
2.859144408261384 
0.3388749718846005 
-0.04373430671096325 
0.7254355347153031 
-0.5122310711252248 
1.456087872031683 
-1.88401006131106 
-0.1258031401214257 
-0.6911981084218919 
-0.8996424769114088 
-0.1297325067415338 
-0.53586461289484 
-0.06992130117688925 
-1.082083606197731 
-0.124426993612196 
-0.09647035547799729 
-0.6145871373952875 
0.2558912553056684 
-1.807335423589955 
-0.5455535406278712 
-0.3013475789861993 
-0.7738387603131881 
0.55113505412394 
-0.958159021478016 
-0.187334019587774 
-0.09427612777059706 
-0.1162629097919024 
0.2681927013956791 
-0.4266612745354409 
0.2998086868470979 
-0.1621598713904496 
-0.6329408674699747 
-2.089716288488448 
-0.43275689768564 
1.342306431281176 
-0.03180394634184623 
-0.3380256764645176 
-0.1989442983818105 
-1.05560768464562 
-0.01080138586651842 
-0.3078983191277126 
-0.8341666695982732 
-0.5585481334549226 
-0.8917791141904216 
0.7908784779575148 
0.2978874282818381 
0.05594437677046268 
-0.2659618267323135 
-0.4174226737748015 
-0.4077304160414798 
0.5079666077626923 
-0.4412872448494016 
-0.01413718300913957 
1.114281056522884 
0.1593591538978456 
-1.13830604565611 
-1.155485376597744 
0.6038248375635421 
-0.05440509308382682 
-0.09438915215788388 
-0.3397692668274148 
0.08725930979881179 
0.07903578353392647 
0.07048128346665321 
-0.07046329859929297 
0.2811927404469481 
-0.2529040545854598 
-0.1423222797702716 
0.1183694049197736 
1.159541422998814 
0.3950303145597999 
-0.09006305976321324 
-0.06703764572660137 
-0.5334581200342464 
-0.6755816409233301 
-0.4423527203022333 
-0.931698846481354 
-1.423164131021188 
0.02882809697904873 
0.2139431667203221 
0.08917265174412978 
-1.371721886078307 
-0.2872680220114588 
0.9817499765514511 
0.2022967134456566 
0.06676325001915434 
0.6696931141047182 
-0.02865144588616533 
-0.2360592925132846 
-0.5863952530201483 
2.761092675609755 
0.8340927041231586 
0.1304745198423745 
-0.1564838116969549 
-0.6221326091040537 
-0.003842266632277732 
-0.3643566338587607 
0.2376063052251081 
4.882315086099353 
0.1488443959471659 
-0.2552060263032555 
-0.1867428238626633 
0.002392077601804152 
-0.4180371355277612 
-0.009176036140345623 
0.005096475316796433 
0.1331606872482282 
0.05726415254803839 
0.4016376369322709 
0.06047139183933365 
-0.5617085954150806 
-0.06047136389918685 
-0.008529749856714845 
0.1579297366065988 
0.8732084715335466 
-0.4630949215238066 
0.1367080690948857 
-0.9059109895516064 
0.2365746891510278 
-1.941890839674812 
-0.3387469826908718 
0.5737127939576303 
-0.3230433788501873 
-0.502658404829582 
-0.8098015891172112 
0.1561995339239632 
0.02121448924216574 
0.5763146771046666 
1.0622156478135 
-0.3336344657034738 
0.2089205818309625 
0.6604790345504544 
0.05220845431075451 
1.078411288219552 
0.9442142245914911 
0.3711339396620064 
-1.144917173150746 
-0.6612191066541787 
-1.045671371695725 
0.9145384834454509 
-0.5237849033873824 
0.8611934647546176 
-0.1236613298048639 
-0.1488685058522035 
-0.3482452142494688 
0.2939612345493575 
0.04249142833485807 
0.05288082554721719 
0.04356162394522488 
0.0994242377803113 
0.02818938878363739 
0.2818781824066947 
-0.8396298948135046 
-0.2490804101360375 
-0.9775727376288216 
-0.1797023980765789 
-0.3091882473216698 
-0.5003056009852326 
-0.1291187574519633 
-0.6177324531371496 
-0.0449292040023399 
-0.3994718416536621 
-0.5229055686323241 
-0.1198948188319395 
-1.229165663685251 
-0.2275213380410222 
0.2244518697869534 
-0.8806442579378901 
-0.2037541536365303 
-0.4287490838771619 
0.8615140535479052 
-0.2167410600337622 
0.442702663341001 
-1.338644670944523 
0.2130186630903886 
0.428090021738666 
0.1337002757474786 
-0.02248911355409742 
-0.05863242310387772 
-0.7043477343933758 
-0.006749835719854582 
-2.028476717753669 
-0.2566866088322293 
-0.04700517403439179 
0.02932882521841937 
-0.001046206558207496 
-0.1531250993381406 
0.05829391939742471 
0.1520021427336898 
0.2353470385960384 
-0.1231658387107749 
-0.7678133581184848 
-0.1348697492725331 
0.5282037711054303 
-0.6044426970350894 
-0.1803679708651263 
0.2689641092227208 
-0.3118851841232719 
-0.4564113037093354 
-0.08673789989119443 
0.2994051830634239 
-1.914255444258599 
-0.2607082434423446 
0.2914520978544656 
0.4028460834630852 
-0.1731227742229221 
-0.3450044971142577 
1.102142005623601 
-0.08122082535199938 
-0.6424212166504159 
2.834435606869032 
0.03694203179385695 
-0.0646003016570022 
0.1202785469654886 
-0.2555058741354777 
-0.2193517719921885 
0.56059346467921 
0.01018136056598461 
2.155448141763706 
0.3517003299190108 
1.472660927102196 
-0.9551815831805186 
-2.550779366656591 
0.0534617001202191 
1.102049648231625 
0.04726382049561553 
-0.1233852158617169 
0.7185969236803285 
-0.01401358935646522 
0.07986617360521303 
-0.6262346531258282 
0.3132123961760921 
-0.4184201272729224 
-0.326355932171363 
-0.2093964056705893 
-0.84891051301539 
0.883030867582814 
0.1672221685350325 
-0.01996895032772903 
-1.38121216690877 
-0.1846240728677917 
-1.685548633303933 
0.1679645360543209 
-0.4888581843793437 
0.03645460076949327 
0.8536313229102216 
-0.6955559947373056 
-0.9322547128250235 
0.04548134957843438 
-0.3903461176824654 
-0.1688556742030101 
-0.6250498814123765 
-1.543909551769899 
-0.06418432120290998 
0.1465965675312717 
0.07874823993730376 
-0.7894432596029861 
-0.3553016331981692 
-0.6167329218668403 
-0.6608654606517419 
0.6768332297666624 
-0.1599133425625246 
0.02720957967571411 
-0.005213375623257154 
0.3176621156096059 
0.1061493102122597 
-2.239719276137122 
-0.2086409130947884 
0.252206487070211 
-2.395812925700162 
1.069780848503798 
2.246845521996282 
-2.367160712420459 
-0.02342785157333757 
-0.06280900286532666 
0.03108664822067588 
0.0114715721593342 
-0.110326754939592 
-0.1222257287042901 
-0.0990200700400357 
-0.009701594834911002 
-0.8573765690771134 
-0.2306491386178072 
0.1987519893166353 
0.04168962782094113 
0.03809318021300766 
1.424576543437615 
-0.2138231711138514 
-0.2524775917299636 
-0.007104528018983418 
-1.083784147992506 
0.1167235818019917 
-0.3517359946640518 
-0.4198414848314602 
-0.07570713787540033 
-0.4367677745275398 
-0.2201969424481871 
-0.2345960440744454 
-0.01753500805397079 
0.07483724157928537 
-0.0141201452664522 
0.1467859337281372 
-0.4264711122502653 
-0.09019942396716474 
-0.1262172938399049 
-0.006719125183260619 
-0.4435551234497234 
-0.05479480690843208 
-0.2669189490685634 
0.3584359929045495 
-1.303370633914283 
0.9119683042778091 
-0.3176101345112348 
0.01825901157371461 
0.3779897784474176 
0.3326414947922765 
0.3507265529045563 
-0.5687956596626445 
-0.2508203466615557 
-0.3104829942610674 
-1.151849829098638 
-0.1563732511067173 
0.03129711852884842 
0.07096289094055128 
-0.7472035586341423 
-1.186326738059166 
-0.8050816710207061 
0.366853189646032 
-0.7991621113238336 
-1.204653684675003 
-0.2491800982981683 
-0.6454644079398091 
0.0925613240060314 
-0.4056042582678572 
0.0925613240060314 
1.284522923924762 
0.09569771159738189 
-0.1399498949493096 
-0.1415424843060386 
-0.1399498949493096 
-0.5486783977305041 
-0.1236629255498759 
-0.3284778402002693 
-0.2561061125788849 
-0.2908119487762217 
1.007218107235556 
0.801820418364826 
0.5526264878848028 
-0.5886579133208287 
-0.2406107306824191 
-0.3642411087756568 
-0.302865991535349 
0.006079264009291352 
0.1460545170626865 
-0.06315866704296656 
-0.05067061381562926 
0.4778886830430315 
0.2296303320254169 
-0.2635533677940263 
-0.01437954222603396 
0.6119892941387833 
-0.4027991135917215 
-0.007075302305992308 
0.3022634297140295 
1.70912399961487 
-0.3862656877000824 
-0.04998362063267553 
-0.8028426569548087 
-0.1518041146864087 
-0.05641911667282544 
-0.140982038249755 
-0.3090660734896503 
0.4209357321866157 
0.3707510942976119 
0.07363099607991788 
-0.04583602598737806 
0.2157059722235754 
-0.1014396252063121 
-0.1501421294468519 
-1.178097262269996 
-0.1464324227620201 
0.5034235422366937 
-0.09724062101146132 
0.01728758990615937 
-0.1690912280243607 
0.03148697694704764 
-0.1364052313591039 
-0.1946546554797574 
0 
-1.498580408206906 
-0.4942615239605554 
1.06323861831262 
1.95006623782602 
-0.3245980279128533 
0.5759309037953246 
0.07222772762949552 
0.3105876828072039 
0.05524263323093439 
-0.3004751425387581 
-0.03158250515938519 
-0.1426116550860715 
-0.3732208441380864 
0.03972445856332323 
-1.817741206304967 
-0.9054294972671828 
-0.1427935378348174 
0.1206525452514341 
-0.3852843037420963 
0.515809996839584 
-0.35893226002901 
-0.1269951320664296 
-0.02069559105681544 
1.190666180753181 
-0.01548642841585755 
0.1579201034433245 
0.2351474993464684 
-0.8695986803338937 
-0.03138640222488324 
-0.01080205731816072 
-0.04143371968985251 
0.2947121499493344 
-0.07310656306673968 
0.06539909168495478 
1.564152840569884 
-0.07544058263552328 
-0.2699238883774265 
-0.3212077763963789 
-0.0327067291005363 
0.0989494574182698 
-0.8452265394351141 
-1.420962475587155 
-1.573543871880287 
-0.3808008148245837 
0.01673568475435311 
0.05985464034594176 
-0.02222928026033697 
-0.7044030638777872 
0.3381838794523331 
-1.567574809200747 
-0.03254850425875767 
0.3630325877320983 
-0.3960222003712938 
0.05947542855530841 
-0.2128839584717243 
-0.04723298938467639 
-0.1077580014101114 
-0.06737072642833034 
-0.05225623493658818 
0.004693891675236483 
0.4335309533505671 
-0.7626237461421983 
0.8653173802166618 
-0.01477032047067703 
0.2322706900074394 
0.1814630159166501 
0.1165117727265042 
0.1379179103528294 
-0.1921834294406326 
-0.07429870391687971 
0.1719403607038741 
0.4931702046496216 
0.183677320904523 
-0.5427274939128426 
-0.3885774867664271 
-0.7456122861889295 
0.08342082629213773 
0.1070772857724 
0.3225210399131553 
0.03308122359858068 
-0.4197762461900906 
-0.1228201345594975 
0.6171521630945062 
0.4767897805276872 
0.3427600123151017 
-0.000998226343748361 
-0.2502048522199882 
-0.2373393180547083 
-0.3429632369421525 
0.02015818068411411 
0.1200047190321026 
0.03446929490365934 
-0.04931381375377675 
0.03332862210689772 
-0.04474859662532996 
-0.1409479698167734 
-0.2126261397136029 
-0.04474859662532996 
-0.04474859662532996 
-0.02716427220002553 
-0.2727276375555484 
-0.6012702826364679 
-0.2792534330033037 
-0.03540599787852004 
2.1946552405987 
-0.2831331260464955 
0.8086479698702623 
0.9890007893620419 
1.062884955839851 
-0.9463448670216004 
0.8385380012229642 
0.8592378480030845 
-0.1488556083407476 
-0.4955308805507024 
-0.2031222022828739 
-0.00851596846140147 
-0.3893499209473995 
-0.1949586147283329 
-0.4445161610571875 
0.1980655059974754 
0.3226960132407616 
-1.056279193467204 
-0.3610418808695218 
-0.1187666989412941 
0.7905348749372079 
-0.08408030581688428 
-0.5423470553068243 
-1.964235471691637 
-0.03382449553380733 
0.06156874137859288 
-0.1195400035070059 
-0.07695584313973501 
0.6226744470757493 
-0.07791737234681538 
-0.0182988973122145 
-0.0186888247753694 
0.03285031263984647 
-0.2316246524829617 
0.004342950253498276 
0.8468376278701804 
0.1640043572310319 
0.9928560188108747 
-0.8739174926217913 
0.04479025797368311 
1.182494546674257 
-0.3100737291903938 
0.1840988877658175 
-0.5125451683074844 
0.6702242053346122 
0.6702242053346122 
0.6702242053346122 
-0.279527978416671 
-0.0146532710136614 
0.4592014989209228 
0.9473728504376728 
0.06632124429933414 
0.1664430918949849 
-0.1316817319092593 
-1.075866845892634 
0.07088547478740412 
-0.7763654733589647 
-0.7061236364902213 
-0.5029727884583578 
0.2536054301104926 
-1.300714021465828 
-0.07348720937522026 
0.127256356539081 
0.0186873098911641 
-0.0986965161117144 
0.370140234848144 
-0.4143774038370209 
0.4432270873277066 
0.3700800606983641 
-0.03818145452922662 
-0.2606315157182363 
0.05287012403806241 
-0.1508757476390832 
-0.2542728123550146 
-0.001321788655572152 
-0.03436615604321359 
-0.9045282388733089 
-1.16985417575308 
2.408553957864597 
0.1129214327065214 
-0.04998768913591357 
-0.3205970609321097 
-0.2428281539620329 
0.9735934564018497 
0.4574345203872701 
-0.06758755434592258 
-0.1299475726941648 
-0.1351584975226513 
-0.7616825453022814 
-0.01880229400555509 
-0.002087126964170868 
0.2474000320418363 
-0.8286964423505587 
-0.7542107996796601 
-0.2495093692355438 
0.1938601671870702 
-0.04081018391935588 
-0.5283444429092626 
1.991887744092541 
-6.184977884212881e-005 
-0.2078873729335067 
0.6849318994217768 
-0.03529070329851985 
1.05138630387142 
-0.05086765255173549 
0.6466751199737155 
1.008658946869393 
0.6854546651505845 
-0.3667860686787873 
0.3710488575099259 
-1.252246071845935 
-0.5356841239143971 
0.6154722537875598 
0.05384319394007239 
-0.3606831296324664 
0.4445814673202879 
0.09780270473578731 
1.422026746800914 
-0.1402908662017126 
-1.253424546690874 
-0.02960257661752437 
0.5945873497877683 
3.125209985282301 
0.906709839832514 
-0.2782808541655615 
0.9905989603374567 
-0.07308271579384855 
-0.6022126030779775 
-0.04136956560069129 
0.3200098531518594 
0.01280936260817464 
-0.0173566787695269 
0.2198327997102129 
0.01657075063657272 
-0.1939662440921564 
-0.2787982288467796 
-1.65136605938333 
-0.07146327859807453 
1.198897178274684 
-0.627947617427166 
0.2663106438210794 
0.06475600258412378 
-0.1025748155722804 
-0.07744387225031627 
-0.1245917404477656 
0.03990704556559377 
-0.002449437390710323 
0.3493489174887463 
-0.2876173521141551 
-0.1139349601867507 
0.3504422035195623 
-0.780916576988288 
0.3857619352955929 
0.2382971683182469 
-0.3481996771265417 
1.854165945419459 
-1.573554053774142 
0.01637480176637876 
-0.1240834728159447 
-0.0009390043873529427 
-0.09075459551997592 
-0.5775950074647628 
-0.0641366335929849 
-0.1737224231991662 
-0.05687837510061031 
0.1171972104659041 
-0.5660716934849386 
-1.838820394975556 
-0.4208107999271159 
-1.337879313685077 
-0.1121149378028984 
-0.4879847764098069 
-0.2445658365111006 
0.001925774578923075 
-0.06287664056460333 
-0.03992817012211268 
0.2913094018332929 
-0.1006957717713606 
0.123538663564026 
0.8604353718197203 
-0.5061461556415366 
0.5137191965824742 
-0.09445698075743451 
-0.5388354548928915 
0.5159944628790006 
-0.4704677108513582 
-0.6296080806729217 
-0.1448035705664859 
1.522259647036899 
0.07471458050950529 
0.8488472696236397 
-0.1862935469944062 
-1.764234871532366 
-0.208328725431001 
0.7274303077397781 
0.7274303077397781 
0.3643236205096031 
-0.9822719497140086 
-0.08175804498357113 
-0.03651829129307563 
-0.8014649191140002 
-0.03047619407873834 
0.3739101880042304 
-1.169697276455658 
0.06842336490014213 
-0.6223338686585149 
0.3949905915389973 
-0.05210301138703923 
0.2198813589618925 
-0.4912724449793129 
-0.04718001557066053 
-0.2358375073924958 
-0.3400288494825836 
-0.06301144145602138 
0.2855173234982545 
-0.6342708047118907 
-0.6177030762608827 
0.4081984268370905 
2.3001860027097 
0.04011287354017139 
0.08200899520580778 
0.8183498240900975 
-0.4753933697841022 
-0.4829175339337148 
-0.039243383797372 
0.03900744952880393 
-1.127029790781694 
-2.079383253495375 
-1.12000764098332 
-0.05594124375276388 
-0.3021186912363856 
0.3640238429060592 
-0.2315027783214821 
0.467830921731611 
-0.003358822180682582 
-0.2653335341906288 
-0.01478508837898666 
0.00795547454342501 
-0.5629337167485413 
0.05664585672389333 
0.9671620767188341 
-0.7811738562229073 
0.5447152914501383 
-0.3030712633813114 
-0.2460985983365988 
0.002392077601804152 
-0.007103478962530742 
-0.8671605603233856 
0.05372636110043842 
0.06059664415848921 
-0.008884152177237403 
-0.1711268879454227 
0.05470819659330926 
-0.07325494967952237 
-0.04746479302838477 
0.03095289106104085 
-0.540452065368588 
-0.002732862243933135 
-1.262044074933931 
-0.1699482982627613 
-0.656822027942131 
-0.6810401577584685 
-0.2362065405971565 
-0.007353226424052958 
-0.1315671721079667 
-0.7852636038782825 
-0.117346430556525 
-0.1134030164109545 
-0.4506559846380014 
0.06920527733627842 
-0.110774886458192 
-0.2243283145417463 
-0.08981347807081512 
-0.1085430333860508 
0.07537764819714486 
-0.5971052503032406 
-0.1710550521814858 
0.9603028870126853 
-0.1214322457551425 
-0.02978037631271271 
0.08950798094939265 
-0.2383897663827253 
-1.155727416535106 
0.1241156280385658 
0.05858582506373575 
1.146011806183789 
1.21572796888614 
-0.2816565385564288 
-0.08403009308076521 
-0.01607499279423158 
-3.523904773529155 
0 
0 
0.06745142545317745 
0.5685873449105219 
0.06240855335431458 
0.4391367426768828 
-0.347694028658663 
0.7779848856770188 
0.1766942494643669 
-1.430874111060545 
-0.08346679015073001 
-0.05185813908261014 
-0.2902857170060013 
2.070105293913184 
-0.01856296851405267 
0.006132900287755642 
0.1020967978959009 
0.917493484007657 
0.5626347024759408 
-0.1027984686402659 
-0.1261093350500906 
0.02820236713109133 
-0.2779534928742924 
0.1263833974181604 
0.7501412238586324 
0.2986274868602947 
-0.008464517194020936 
-0.1862837922924761 
0.09901745067232884 
-0.4313291068862679 
-0.6498043567787298 
-0.09852016217150185 
0.007402678860616813 
0.8109541225620238 
1.549076904342822 
-0.3269565517005269 
0.761549175012226 
0.494846308272728 
-0.4454614297130379 
-0.1111471914571744 
-0.3311494513110574 
-0.1010112122515275 
0.01802069302448998 
-0.151079396449089 
-0.2764964752033724 
0.8002611075137577 
0.6243548945246611 
-1.265164163946688 
-0.4900739144683529 
-0.3003974920467962 
0.9642500780638569 
-0.1909542981707141 
0.02031186857808424 
0.01339844151536165 
0.005404612139986724 
0.003058708808078471 
-0.04049096622582441 
-0.1605244814324675 
-0.1169764267533019 
0.2570931958005499 
-0.3953395136004793 
0.5439187465851078 
-0.03815824879063988 
-0.1178250528102248 
-0.06407568949905561 
2.112880035726755 
0.04457571231032666 
0.1913949586602611 
-0.2848532853655237 
0.1022402735720157 
-0.6888745964174987 
-0.2157444295119116 
-0.004596435650462479 
-0.2239070221772617 
0.1963446440292185 
0.424809181641177 
-0.05736876351196466 
0.1996299947774139 
0.8484301349456929 
1.064726428963678 
0.3257950925677581 
-0.5055571055686621 
-0.2227755014729737 
0.01177584589441507 
0.4431430120269401 
0.6081779454320403 
-0.7104881412375791 
0.1791288342265934 
-0.6514476519475727 
1.374121020260754 
0.3170901411013896 
-0.01104318558880712 
-0.01104318558880712 
-0.06346674305190429 
0.0749311934405994 
0.08220806928735447 
0.2666329692098182 
0.3966951719674841 
0.7283401572009159 
-0.1409966881058651 
0.07540453682241061 
0.09696192431957487 
-0.5884627826735795 
-0.8401850575035145 
-0.9876472136324449 
-0.08185093391917762 
0.07048785151972739 
-0.03549128751938015 
0.3226783522365374 
0.5505075700515698 
0.339191830237757 
0.04334844598787263 
0.001692577237614932 
0.1515769281674235 
0.1024582688992772 
0.1024582688992772 
0.1131799887409599 
-2.039084801924504 
0.364734593057259 
0.184218989434551 
0.6021505129086654 
1.201612538402639 
-0.009660749402790075 
0.7550536338963395 
0.8549611397949568 
-0.8478658046516705 
-0.05134887993826012 
0.578183151716869 
1.552433178625131 
0.3560185129013223 
0.3838375794120339 
-0.8904037421487321 
-0.2257367031614359 
0.8866959921631752 
-0.6172294618892332 
-0.0333861886515763 
-0.0333861886515763 
0.2183097310571077 
-1.252822440090149 
-0.5550372765081482 
1.596250302573873 
-0.3217496385459543 
-0.3705265894833566 
0.2637549194822065 
1.682631855742413 
-0.1929743320788982 
0.715598730123941 
-0.7303995986832331 
3.867968211043466 
-0.5119591117414546 
-1.296790260816708 
0.5761259423569975 
1.241329610163652 
-0.2015482816442078 
0.4421730352514288 
-0.3191187716809872 
-0.7388895383507665 
-0.1390265128969706 
-0.1390265128969706 
0.888215604129861 
0.1963087923797078 
-0.2291741285967367 
1.148724909103931 
-0.2219716923836501 
2.056541474561831 
0.3789699058129701 
-0.1057029602931025 
0.423176799321569 
-0.0779324670907082 
-0.1415711625695442 
-0.8604256487659736 
0.5861034041005124 
0.3418486691835038 
0.5557057831850326 
-0.6939356949482274 
-0.8072367392463518 
-0.5744276496716685 
0.3100523600302024 
-0.07751362035513296 
-2.49278399092087 
1.456149725547507 
-1.269165398164792 
0.1418407999519162 
0.1418407999519162 
1.854051800375309 
-1.015808113746025 
-0.08832830735127882 
-0.06699016788717582 
-1.275040150655013 
-1.300329549507106 
0.7411505188948495 
0.8967328448629375 
0.2967738082078988 
-0.1509609312139715 
0.5398590498190181 
0.2720049777002172 
-0.3142841108303183 
-0.1401950925985324 
0.5452206464102349 
0.2415872607824187 
-0.08050916538938235 
-0.01576103380389654 
-0.02588468638821155 
-0.02588468638821155 
-0.02588468638821155 
0.3028952677228153 
0.6263022055385503 
0.545795301165568 
-1.180675523433699 
0.1216295669768263 
0.1216295669768263 
-0.3260486210555991 
0.8013979480873534 
0.4371447417207064 
-0.04942357594630036 
-0.4365280143330633 
1.599249196492688 
0.233776614895484 
-1.065071723804737 
-0.182336091829675 
-0.05290123724665701 
-0.3812108478371044 
-0.06105272918335505 
-0.7643248887334895 
0.5402024764851184 
-0.4321142726104643 
-3.386162339211095 
0.5399470870907953 
0.459013749566362 
2.212912364212751 
-0.05037481772219236 
0.07012210574051998 
0.469676796094441 
0.2377075655280478 
0.2377075655280478 
0.7934427619355389 
-0.2043088896455449 
0.1575556205365394 
-0.2389016049145339 
0.0405564687625436 
-0.4187231882749283 
-1.564582955749575 
-0.04273726348021169 
-0.3285056070902512 
-0.7198053400457328 
-0.4473750133882569 
-0.6964905311869448 
-0.0927263640062123 
-0.001805767055723221 
0.04721870512848086 
-0.7684544084132645 
0.2280239296404201 
-0.2743943414247865 
-0.6358598850356587 
-0.645632972990282 
-0.009109155590358483 
0.2482718051774108 
1.903982392760098 
1.179651062719935 
-1.508410624096294 
0.417366619580738 
-0.3846781397431062 
-0.3257635416698028 
-0.3022889228544843 
1.209322898439129 
-0.1269208430679076 
1.154217190167462 
-0.3414656239212871 
-0.2654228680634976 
0.3380818896967781 
-0.3528030425636466 
1.599207688716315 
-0.06197662049584022 
0.4584540501082004 
-0.3124659721285773 
0.1556679980432187 
-0.9246241786757707 
0.799757510122969 
0.01263627532221992 
-0.8542835764238305 
-0.809043210114591 
-1.220606137819307 
-0.1572243420015373 
-0.1143214251762537 
-0.4968857896587653 
1.689811412745044 
-0.6403548483197341 
-1.32773820185083 
0.02281019749568794 
0.02099465002444671 
0.04382318867548907 
-0.3764485005023468 
0.4067977272667546 
-0.02471520829457473 
-0.3006616134835817 
-0.2125528829348161 
-0.2235614058410782 
-0.1710678471619646 
0.9746563987250427 
-0.42073800617985 
0.09438321519345755 
0.1637684850308811 
-1.233944437004758 
0.1041457533661068 
-0.04743360284508648 
0.9565573492209074 
2.517815888208426 
0.08346958468116426 
-0.08368188779563336 
0.4451639477293464 
0.05330468972076842 
0.08446484018951492 
-0.15336435416523 
-0.4151952270424824 
2.798249878467836 
0.004012601776324579 
0.3798006745754453 
-0.03215907479609832 
0.158054252257564 
-0.0471759468531549 
2.597736367419955 
-1.266241189353053 
-0.003477652953221618 
0.06725864452509023 
0.6673516111325604 
1.15021088998153 
-0.02468658059611805 
0.7128736769148549 
-0.2250152853983261 
-0.05847631249888919 
0.6433406375122519 
0.6433406375122519 
0.1419884088535059 
0.1419884088535059 
-0.3357065777396862 
0.7842992199864493 
0.4387673681660074 
0.1135105279584269 
1.05255500715735 
0.04977382222388489 
-0.3051612872161014 
-0.7714941368434762 
-0.07298729034798911 
-0.1735176810464186 
0.301783328668717 
-0.1557111870959202 
-0.293428048543927 
-0.2528209103235827 
0.6384255933084497 
1.176605560161339 
-0.2828251699985697 
-0.3326138043604004 
-0.347166390511752 
-0.2404342066474528 
0.2032769918218503 
0.4629561018312179 
0.02192207179607584 
-0.5036434317571595 
0.1050603749557851 
1.342480428730333 
-0.2623396132221608 
0.3131735323721475 
0.3309841195508852 
3.107101003089622 
-0.9268668557592459 
-0.4519440417383991 
-0.2193122968308134 
-1.041456540078107 
0.04842591721778786 
0.2293407291129125 
0.6975651860492491 
-0.01163746076194296 
-0.4232610027870289 
-0.1593763810715025 
0.1959264414487661 
-0.2615567302248064 
0.1292131622120223 
0.5297890008165006 
-0.152546098514189 
-0.4717560109434439 
-0.4717560109434439 
0.2650294705303164 
-0.07825586940428331 
0.6228988800022783 
0.4460610160711674 
-0.4830528413112625 
0.08961147541971709 
0 
0 
0.4258979301201596 
-0.9359354153519763 
0.0238203625144313 
2.953295446914424 
-0.2343910889446235 
-0.01039074339718777 
-0.01155348521047445 
-0.6263357019909783 
0.4531432189617024 
-0.2154000711406559 
1.250627322809293 
1.368940802541198 
0.6556191096307636 
0.4174926259510879 
-0.5990464231055943 
0.7984612840067337 
1.527301707354121 
-0.07013107783218382 
-0.0926234999099044 
0.4973423272279652 
0.5013776962552028 
0.288932073343738 
-0.2559702029753839 
-0.653505666975793 
0.3494607632360466 
-0.3379644642690397 
0.02883798511042316 
-0.5330879571235517 
1.019171625816707 
-1.217000043880682 
0.4509908104032369 
0.6848959605251734 
-0.09903557402171249 
0.3056569104206017 
0.1425341338819352 
1.138095631916104 
0.9241328452303042 
1.158280293182854 
0.3288301576608936 
0.6478691028574095 
0.6728795898248933 
-0.009934635447329646 
-0.01595752193477354 
-0.002532187874200697 
-0.1368133366977053 
0.3072635930085313 
0.3085046072633337 
-1.113016220836767 
0.9455803511535342 
-0.4062967356937576 
-0.2794674216070608 
7.002799186471196 
0.2709279246118225 
0.09427350626191272 
-0.200086042960921 
-0.4831835498219971 
-0.07076754260388504 
-0.3098354813460272 
-0.006500853534905735 
0.2845808404060553 
-0.7155978103200568 
-0.2064886617070687 
-0.2064886617070687 
0.5428322135160442 
-0.0005592518027339134 
0.2281802543235501 
0.8413380249973649 
0.7008792787579148 
0.9068711563552495 
0.2614415515314942 
-0.9840008947477336 
-0.9338078018956516 
-1.274920641631512 
0.0007093189888781857 
1.382378806857444 
1.382378806857444 
0.2060141030358879 
0.2066067803918424 
0.3835826462625875 
-0.07065157732763946 
0.5518134880584578 
0.5518134880584578 
0.5557681060509097 
0 
-0.8198859573084817 
0.05547034740999966 
-0.3357031848667066 
-0.2213951066663112 
-0.04221434441619684 
0.03672671172844078 
0.102749091005057 
0.102749091005057 
-1.736374722669305 
0.4941829664221725 
0.4836727233098482 
0.389023850166825 
-0.2462044251831935 
-0.4211035365874496 
0.1927359928870824 
-0.684715952958181 
-0.8162851711075856 
-0.3605701076180495 
-0.05889735081969568 
0.178810214708352 
0.05278053093910243 
1.147862789850688 
-1.113309919405407 
-0.01168306301522733 
-0.2167738865498149 
0.2293973419227499 
-0.7015771591906349 
0.1262207168467881 
0.1262207168467881 
-0.5884482631828711 
0.1881039255679158 
-0.1246439665277046 
0.1967476322933744 
0.2151833031645573 
0.0819660279255503 
-0.005515329412534095 
-0.01763446686378201 
-0.09122909742531964 
-0.03293160502310974 
-0.006131088958038071 
-0.001899839981499718 
-0.1839225487165028 
0.06468595736964825 
-0.5613674188301527 
-0.5613674188301527 
0.07511829845915724 
0.07510266706387297 
-0.06214953727022602 
-0.8574164372365082 
0.6146314467691783 
0.04066079166242109 
0.2495665466883376 
-0.485718354736684 
0.1532691220290304 
-0.1563085465932328 
-0.3492202835042312 
-0.03454449233167247 
0.009068492157913305 
-0.04255077051470332 
0.5716466430734487 
0.2013385154893707 
-0.2946716507128298 
0.7137246016009727 
1.325244940499021 
0.1803141281782665 
0.01220414988182489 
-1.647900976833815 
-0.4933987060883654 
1.140904392767088 
-0.06082334249830365 
0.1988165656909258 
0.5120943478962671 
-1.427058420078822 
1.071915320769255 
0.7160528677432169 
0.9065744029137759 
0.3413223550466688 
0.06756186035489931 
0.1529682645260227 
0.4352865350899521 
-0.1003674649347754 
0.3266744285526342 
0.7884838229386342 
-0.002550806114275684 
-0.5659844654708884 
-0.6363263154854664 
0.1898616656970735 
0.07507500865037484 
-0.01553716993228808 
-0.01553716993228808 
-0.01553716993228808 
2.074348974195777 
1.286185416331172 
0.8248008297413734 
0.03013950524709837 
0.06681127075575456 
0.09633353116802802 
-0.7713073296675621 
0.1621814367876383 
-0.9584738973355422 
-0.1124289448723021 
-1.469509128641179 
0.3716185701602325 
0.3716185701602325 
0.1108401885023861 
0.1410437201940267 
2.851001086249513 
1.013134880279146 
-0.03049711811609956 
-0.03049711811609956 
-0.03049711811609956 
-0.03049711811609956 
-0.9652448737231425 
0.08977564948777614 
0.1410832300199856 
-0.005772641267327018 
1.424873364169801 
0.03025482886200687 
-0.6039125165786748 
0.5301890865740716 
0.6692076200338796 
0.7944334318896661 
-0.003538665115648143 
-0.003538665115648143 
0.726988709371893 
0.7422469133171706 
0.2882514766588771 
0.08909815374533003 
0.2174479299041537 
0.128442839500855 
-3.783522489951989e-005 
1.016125800213904 
0.01977715795965315 
-0.03561697798802767 
-0.1288428929255122 
0.3494029485165857 
-0.1050966701193237 
-0.9064995441901191 
-0.9163931549493749 
-0.02460660997696119 
-0.3167730456210212 
-0.0005261023703905649 
-0.2206743140848791 
-0.2206743140848791 
0.09511519565242972 
-0.09393469299463812 
-0.1664765339986477 
-0.02431745320933927 
-0.4994660701504901 
0.8846347310778674 
0.003529558005080394 
0.08561887677382969 
0.5518615234889727 
0.07251528884162221 
0.01471674482470491 
0.2885733346661533 
-0.1125334282182915 
0.2113967735366781 
-0.08589206409484296 
0 
0.2134882971936437 
-0.2107222817353652 
0.6126720035862933 
-0.1568227673960201 
-0.00843810553347382 
1.009186669332631 
-0.010005924498718 
-1.022677423110056 
0.3889613071151357 
2.747956066868572 
2.746595988330523 
0.3905495301471157 
0.1944848771841486 
-0.03142963316128657 
0.004971845036040712 
-0.5109278996462852 
0.2768572419895152 
0 
0 
-0.007240717807915732 
0.06817576738879831 
-0.1538473242871486 
-0.05087822942123489 
0.4487380313805604 
-0.08233731774961745 
-0.4751838101769157 
0.1017580775450816 
-0.1916407113184633 
-1.336398104875586 
0.5658615045570595 
0.5658615045570595 
0.2381818685251526 
0.09107315986244685 
0.04155791825119688 
0.1515099603042706 
-0.225073515597388 
-0.1626869036899498 
-0.08330937856397347 
0.5474725062566554 
0.2588939891907386 
0.2507725620445609 
0.2507725620445609 
-0.04931243088349219 
0.303052700426944 
-0.2136101335816257 
0.02887074427881191 
-0.06647624257791776 
-0.06791709245263751 
0.3184665926661793 
0.3041119846378506 
0.6558966597598788 
-0.1036382733078625 
-0.06081825436179106 
0.3567847793103927 
-0.1336277782203945 
-0.1336277782203945 
-0.1336277782203945 
-0.07562159152045102 
0.07156212766465395 
-0.1684856501369282 
-0.2433227563501688 
-0.001756235224175448 
0.01922086454221961 
0.8183794249058076 
-0.03325705062599994 
1.318511088126902 
-0.4548062427596589 
-0.01635369457337496 
0.765345039489485 
-0.0456153459204473 
-0.0008511015708331547 
0.9300904955159308 
0.4871290233929355 
-0.4535257442580689 
-0.1245590820167913 
-0.1057349652350274 
-0.139957836037612 
-0.03196469115972592 
-0.03196469115972592 
-0.865617305300583 
-0.839382703809667 
-0.1950660115456529 
0.6039464141832353 
-0.4721525252167885 
0.4456849251934035 
1.205626852314217 
-0.03565776809418351 
-0.03687470460002092 
0.1943543164783906 
0.2019716152324363 
-0.1383705914482787 
-0.2231220624051383 
-0.2492576937029321 
-0.002612106791561964 
0.7993459087244071 
0.1164294357462956 
0.001309476439309288 
0.5653506711427745 
-0.1469687305995777 
-0.0002314404790272276 
0.1761335148671473 
-0.07331954649059613 
0.645873508215459 
0.1206157441127278 
0.667679808484416 
0.667679808484416 
0.3150650203934909 
-0.003074830292878164 
-0.003074830292878164 
0.9140143090476771 
-0.1020358767345373 
-0.04655863192483455 
0.2508950062369515 
0.1848883993944302 
-0.3847030675541029 
0 
0.7529309767168846 
0.337608566520574 
-0.0242177660098431 
0.5668332219856611 
-1.052574891619643 
-0.5048703991804319 
-0.4272638368870667 
0.1021111827942126 
0.8582599840722123 
-0.02065618726462609 
0.1469406567942289 
-1.215272152390608 
-0.04578178951519923 
-0.356075245030097 
1.268091833615088 
1.268091833615088 
0.07471458050950529 
0.1036839791066207 
0.5693203442263919 
0.8360495166783657 
-1.074946655748056 
-0.3099000012184464 
0.8625120263573122 
0.9440678611851296 
-0.1194601600019439 
-0.0009331664278650127 
-0.4887182498529457 
-1.355022366057767 
0.02234663162836397 
-0.2140628402144814 
-0.03102144971843185 
-0.3083628566072322 
0.05298919906982005 
0.06860480061868733 
-0.004654532028576936 
-0.4203943394350589 
2.598553833922511 
-0.03611769406872212 
-0.2663979956404299 
-0.6547698743685921 
-0.01042338851925714 
-0.08760186654882288 
-0.04959109448436225 
-0.2159642928229723 
-0.1451307414970436 
-0.1798003100946153 
1.371621394222077 
-0.2826488611939206 
-0.2359779786092908 
-0.001558765790162148 
0 
0 
1.305524272457415 
-1.082138409803743 
1.434277971419737 
0.3214745213661042 
-0.008438541788518789 
-0.4187916631765598 
0.2848799470328093 
-0.03378172240555306 
0.09385481846575688 
0.09385481846575688 
-0.2677935323160816 
-0.2644587506567261 
0.09334125281566484 
0.002177008768981909 
0.002177008768981909 
0.9628978568544847 
-0.003148802497006317 
0.158078420758761 
0.1014458666041151 
0.4159357093253538 
-0.0120401170791086 
0.07902273427433662 
0.06403814392920949 
-0.2424148713675543 
-0.4043368902924526 
-0.1524387580368175 
-0.2476326300543277 
-0.0001935275814867999 
-0.667238351418309 
-0.667238351418309 
-0.01688321377864815 
-0.007272901224926222 
0.03371052775531764 
-0.01262458804051621 
0.02124082345338805 
-0.4227530860673003 
0.219005793025093 
-0.1635505850842158 
0.5533640887883917 
-0.1363131547128533 
0.01443032619203245 
0.2205446869311015 
-0.7976592192871276 
-0.1168701556065853 
-0.1734270732741043 
0.009002112942044165 
0.2659662167863647 
-0.01222059482169547 
-0.02097023964319668 
-0.5378378833728407 
-0.1839790281784392 
0.4439679711373832 
0.3072625779873712 
0.3462768327890933 
0.2133992902367844 
-0.03708341328742452 
-0.03708341328742452 
-0.06915694796046612 
0.2265291147878752 
-0.04865339102529287 
-0.01987346664292616 
-0.660378904897312 
0.8102386813034408 
0 
0 
0.1727661409367715 
0.03734114311019166 
0.1480283425513531 
0.04049416273382728 
-0.01584442854835026 
0.3545495674032703 
-0.2449090002246642 
-0.1140026760892435 
-0.6466092053155436 
-0.645622344976801 
-0.1584656808947557 
-0.1584656808947557 
-0.033507094335683 
0.06002455163498661 
0.1604854941373744 
0.2598610418932104 
0.1799010496751356 
-0.1344077111826565 
-0.04380947043147108 
-0.1284189513751772 
-0.6731892076527173 
0.1971952108694516 
0.487552243717942 
-0.2937725114869228 
0.448519879509658 
-0.03602267574483547 
-0.01399634019897285 
0.0003861816252856346 
1.559824379685245 
-0.003538665115648143 
-0.0312093630094117 
0.0006915521447993779 
0.7692206953772979 
0.3233241966144859 
0.2453579581341893 
0.8423957961239074 
-0.3562554252121866 
-0.2681702054659391 
0 
-0.02378732496811706 
0.8014170843824311 
0.4256686041897098 
-0.1736414480937422 
0.06990875316630296 
-0.01932541705525452 
-0.2865687128864456 
0.2603353327426543 
0.1560230744378917 
-0.06172465838266889 
0.910908260128685 
1.526564343307573 
-0.01895328313900257 
-0.04714234425361485 
-0.006769819868444414 
-0.3442798738311589 
-0.1545847841583699 
-0.1545847841583699 
-0.1545847841583699 
-0.001344063413688498 
-0.1079067037369522 
-0.08991212435774199 
0.02838890268946752 
-0.1766949589122258 
-0.1900580155799466 
0.1007251847201789 
-0.008749085724862262 
-1.014407496559721 
-0.9463315349965711 
0.4268400452929339 
0.8838687983775413 
0.1239374582474737 
-0.3509072801851522 
-0.001471816820504058 
-0.05805797734314813 
-0.2355263891582665 
0.5817534377981724 
-0.1010594353087444 
-0.0009820232713858234 
-1.680380620288953 
-0.4521633218657136 
-0.08158041854080195 
-0.08158041854080195 
-0.4285911714635771 
-0.09374971927295268 
-0.03157927073368189 
0.0006819849394347181 
0.0006819849394347181 
0.07839312400012662 
-1.948316297527046 
-2.555363329079373 
0.03581187603982224 
-0.1223516141315689 
0.8062634873149361 
-0.3197407933510104 
-0.01351437368508211 
-0.01351437368508211 
-0.7239006603134871 
0.6389611143212681 
-0.1737571428433605 
-0.1718382762257038 
0.796483429522574 
-0.2145176284992465 
-0.001811935198586662 
-0.1223137462065541 
-0.0008388832470430512 
-0.0008388832470430512 
-0.1366133197465939 
0.4260390315880201 
0.2507172527970201 
0.1775596827645834 
0.3515844584030946 
-0.003251973326959267 
-0.007371564298157695 
0.1996035705236767 
0.1996035705236767 
0.1996035705236767 
0.1996035705236767 
0.1996035705236767 
0.1996035705236767 
0.1996035705236767 
0.1996035705236767 
0.1996035705236767 
0.1996035705236767 
0.177130423372639 
0.2080029012766625 
-0.2730752959539244 
0.2892156252135281 
0.2733870927907517 
0.214475184330418 
0.2200429049831014 
-0.04581588934915583 
0.1698752788155607 
-0.00282099696367504 
-0.02676816900686899 
-1.594052550369513 
0.7057088061593765 
-0.04305184047942761 
0.2095647632038138 
0.1345934174145061 
-0.09198274033511916 
-0.04791782238217412 
-0.1723121148331839 
-7.548468782549868e-005 
-0.01295063417492705 
-0.2672333877651446 
-0.1188776213125662 
0.6845911609627916 
0.6454315753551573 
0.6454315753551573 
-0.04105011778185685 
0.6000531039211562 
-0.3109344485949936 
0 
0.1174347113362778 
0.4482124632927584 
0.1872872917594518 
1.812489687024921 
-0.06555077817521599 
0.5692468859333304 
-0.180632893869201 
0.1941229844798699 
-0.8577961912354033 
-0.1341008321788427 
-0.7194572263565522 
0.03377095641179477 
0.1476287618150975 
-0.001218197657146917 
-0.01116541881409848 
0.2280167223197943 
-0.09432442926936922 
-0.1342331872704825 
-0.3618192731101579 
-0.372287555025835 
-0.3726519295581031 
0.712458595646518 
-0.08923969899612745 
0.1881277691761155 
-0.1400768717921834 
-0.05477286683422251 
-0.0959488031997361 
-0.1233964908666234 
0.6345730759216771 
0.05637407242443054 
-0.02708559780417705 
-0.8227510316558713 
0.4396020384363658 
-0.0916494325519006 
0.4467717914425666 
-0.4318282738779901 
0.004947769450401846 
-0.003037943039153261 
-0.003037943039153261 
0.006796797267734456 
-0.009029300573820382 
1.092594205638296 
-0.001471816820504058 
0.03006689436345518 
0.03004004518153024 
0.02236761864303868 
0.0347602159560271 
0.0347602159560271 
-0.1032284423772431 
-0.1804648062353872 
0.03745286414862608 
-0.1060458660123024 
-0.03107852335677678 
-0.01487410550979041 
0.3921409736651989 
-0.3152926828995152 
0.03127852228062107 
0.3157718860326247 
-0.006206805711587303 
0 
0.7271767150742123 
-0.1614854010331218 
-0.004615473363227121 
0 
-1.421928832498504 
0.3220495830764893 
-0.02486284713093042 
0.1341561148702601 
-0.008043924029354922 
-0.4848403388851128 
-0.2511876893007829 
-0.2045296000989505 
0.02849132528116106 
-0.01733200357870628 
0.1485328467729488 
-0.3414988338080295 
-0.3139936381245847 
-0.1426815713503355 
-0.149443235861261 
-0.4602470346462012 
-0.8055827995671889 
-0.1673501392424444 
0.0262332604411512 
-0.1908114316396494 
0.07209779064361936 
-0.01395868492985724 
0.203405503762949 
-0.6708121196548014 
0.3684429722048104 
-0.1380455986622505 
0.003722917395087148 
0.07845177848755559 
0.8112337373835086 
1.918194015400327e-005 
-0.1788611842947755 
1.450663810086575 
0.1979395727130651 
1.21683563760036 
-0.001937638584852143 
-0.09246916681991153 
0.07902273427433662 
-0.8901375882890423 
-0.02139498657744964 
-0.5909560153534098 
-0.01129765123224997 
-0.02651611447968046 
-0.02575606883097091 
-0.01602580598570016 
-0.02324863127813934 
-0.01676472348576054 
0.04339116175846149 
0.1146892338326834 
1.821855399240322 
1.367519233644332 
0.05742284154327605 
0.07738535961308615 
0.1967312974836087 
-0.3484176277354824 
0.2955022000283706 
0.003368296055281289 
1.206228468142345 
0.379128931692817 
0.435867292744946 
0.3091689221149238 
1.93969181352761 
-0.09815199571278843 
-0.004424254947023479 
1.098474728026233 
-0.002290906122040076 
-1.219246856712009 
-0.1364934459598749 
-0.140319080780631 
-0.09907500999224825 
0.07484195482511243 
-0.271357441083899 
0.1232656187658214 
0.1035278369326792 
0.1379570706970755 
-0.2247303917382823 
0.1118434855420404 
0.3779061331878262 
1.690113401304833 
-1.368763748403905 
-1.368763748403905 
0.2721792094409071 
-0.001639357000433425 
0.3081130888492829 
-0.1425280090372086 
0.6114875543982801 
0.05775463925216788 
1.869301734099599 
0.6640188773730285 
1.080782645134175 
0 
-0.8734480441861432 
-0.4037013412148355 
-1.65988862945452 
0.8626567890256272 
-0.5714018083960371 
-0.02189203111537611 
-0.003837190804080268 
-0.3182938374278905 
-0.02657149832279655 
-0.1356786930468845 
-0.0152172124248621 
0.02868992707524941 
0.004174883164529403 
0.00353437429601134 
0.006820218461944102 
0.3830268386675966 
-0.1500935113531277 
-0.003444845407208808 
-0.1059246430313406 
-0.6871480598591592 
0.05479872388776814 
-0.01529217747838486 
-0.1194170119832275 
-0.1194170119832275 
-0.1194170119832275 
-0.08217336464827141 
-0.1360095844832508 
-0.8661631903408548 
-0.02494608925831698 
0.1666171409841203 
-0.3115956014938061 
-0.04869855283767149 
-0.05704423581461239 
0.394666298544942 
0.3911980688449011 
-0.949863449445112 
0.2633858063548249 
0.2165578708579913 
0.1527646786360423 
0.7967627404292024 
0.1568823825603013 
0.1739723973740029 
1.032456075757885 
-0.2408002384940323 
-0.2408002384940323 
-0.2408002384940323 
-0.6396006739531052 
0.006666976615523306 
-1.020213175220846 
-0.8303723933725408 
0.002031169169776928 
0 
0 
0.4746146649712724 
0.02439988113419406 
-0.02298940411034399 
-0.005236337430334345 
0.03591082769472404 
-0.16543115370538 
-0.1271250827611539 
0 
0.3812021493944512 
1.109876195487395 
-0.1089423801397516 
0 
0 
0 
-0.4359917208210095 
0.4769099936520991 
-0.05516665842486357 
-0.1440750648780312 
-0.04109523245456407 
-0.04402680393676529 
-0.01891714340767111 
0.01240578568266853 
-0.001935728730998676 
-0.01645902233689362 
0.9980396678171725 
-0.01698584486348705 
0.1191446444451165 
0.5389358011559409 
-0.0008747654602451532 
-0.001015140629512327 
-0.6355497509416067 
0.00358580077925123 
0.4523924185741458 
-0.4280694731971679 
-0.1985905176816417 
0.07635851857768937 
-0.6755450685900601 
0.1497627830269575 
-0.3336669381695178 
-0.360022155180886 
-0.05555225351347002 
0.0357578244635005 
-0.1727274167380178 
0.00391682469203697 
0.03217193901340115 
-0.05925601650860953 
0.05583252155882548 
-0.3071931110966694 
-0.02892862642358468 
-0.08597964770567104 
0.07721608938300384 
-0.002016698145156775 
-0.1166775583218949 
0.047531626724377 
-1.08171799267936 
0.3993118625464333 
-0.02186698950862503 
-0.4045871874674223 
-0.1531292031264491 
0.01257869038373708 
-0.0841197393838604 
-0.01858039881181421 
0.2059119992334536 
-0.07044058154814213 
-0.03604196406593074 
0.07957668144916572 
-0.01743838441026461 
0 
0.2027283098560825 
-0.04686126524712988 
0.2628130737869385 
1.943491225879881 
0 
0 
0.4868803959018093 
0.0009683973713147892 
0.001325265634752454 
-0.7531686545615726 
-0.01226447900594025 
-0.01691646036964816 
-0.02060882448957643 
-0.01030534516730766 
0.05751475570437069 
-0.0007525596292790916 
-1.068702015044551 
1.39425897003735 
0.02351577843344482 
0.03636960087936948 
0.3134454282546599 
0.6673898076534537 
0.1391317404089516 
-0.1634854409317913 
-0.3829853784463569 
-0.1427329033026867 
-0.3293300819786645 
-0.1540913207677676 
-0.4133927394611073 
-0.009669329805789053 
0.1238642417206031 
0.101941923514087 
-0.01366006351462775 
0.001351126254289802 
-0.1966456881241486 
-0.01256926945887548 
-0.005138938944778746 
-0.1490758264767093 
0.7283264949944488 
-0.0005225296066928006 
-0.0567162541603941 
1.725701162740207 
0.1841223294023194 
-0.01872443331494404 
0.1630169230173589 
-0.1929753459816273 
0.7286943635555233 
0.234719575971253 
-0.2174115636442421 
-0.1864693790371574 
0.1075161492447523 
0.07718400830998698 
-0.347394800257043 
0.005662328557353802 
0.3961320982729089 
-0.01455218656684825 
-0.01694426416865246 
0.2985308850128786 
0.3837856234335795 
-0.430260644095623 
-0.1491762589006985 
0.0003056059878539299 
-0.008762013524547307 
0.4997835325368186 
0.1339783806812753 
-0.02204233939345792 
-0.006652455335904626 
-0.1767801519844033 
0.3164828821539805 
-0.008429786240683627 
-0.0515363912472703 
0.8391213485116188 
0.002226683966461062 
-0.1515814712140973 
-0.01643399280678662 
-0.2454227390710199 
0 
0 
-0.7825334333814568 
-0.0002922006815503515 
0.1376282026860511 
0.09107315986244685 
-0.3969919368298602 
-0.00519390076055762 
-0.001925660414055426 
-0.001925660414055426 
-0.1274628166936022 
-0.1274628166936022 
-0.1274628166936022 
0.6307737260012022 
-0.000626940331051351 
0.9083454643598703 
0.03731318785660137 
0.05117536118489651 
-0.4456331126912197 
0 
0 
-0.08447006560794937 
-0.02227596904909873 
-0.09687774445567446 
0.3048127774049618 
-0.03601203208941197 
-0.03431786045043351 
-0.00275451492574666 
-0.5027830788399228 
0.01829162294225989 
1.085746660914423 
0.003727413332810315 
0.05425272247650181 
0.004031403040481048 
-0.01477342358187708 
0 
-0.02466664871052994 
0.5398373054235055 
0.207336508607752 
0.2807904003863569 
0.07460241989107902 
-0.2216364644973972 
0.04259067150266726 
0.02807647803378044 
0.06581967587422688 
0.06411676956951953 
-0.03665404541421837 
0.06833042832464459 
-0.005802594668745901 
-0.004074209966250377 
0.08550305487337016 
-0.001338161424497914 
-0.3606199918288501 
0.9009871190629974 
0.4339992168181537 
0.3178665054884552 
0.2384465467340051 
0.3261109443108948 
0.01603257229351687 
0.1066600158645514 
0.07353930774082201 
0.08420999354597586 
-0.006734201870142635 
0.1060963422669369 
0.05356037861250965 
0 
1.543337785629855 
-1.396963767757795 
1.391234473693922 
0.07260902123951793 
0.01886205456520654 
-0.08345784630821916 
-0.2376718609146213 
0.01869087879339442 
-0.008302478360221513 
-0.01460381032722097 
0.1344059627738303 
-0.36742593567107 
0.1578361275063944 
-0.03239207210953167 
0.2035048853300005 
-0.1593592577086808 
0.006959615598138417 
0.6790546463382535 
-0.09622384095143662 
-0.08346014535153697 
1.419365709052549 
-0.1051454454956611 
0.2064388956739724 
0.2419316326581782 
-0.07099202746025216 
0.1617739323904398 
0.00316454470696507 
-0.009108917518123412 
0.04375492289794968 
-0.1635688300604151 
-0.0127795933960615 
-0.01858039881181421 
-0.006320046997480922 
-0.01541633456919761 
-0.0007764076899850565 
0.3372114302694252 
-0.0001416165408833276 
-0.07692071946136268 
0.004942743531882059 
0.2336633914596038 
-0.3436905191081865 
-0.001070784904125538 
-0.001070784904125538 
0.5410544328857511 
0.01631939880633581 
0.01474848522542943 
0 
-0.5877455887966266 
-0.2796918066657371 
0.07437454928111985 
-0.3871536226369866 
-0.0006285446741292018 
-0.01289732541014584 
-0.01289732541014584 
0.4643171438639507 
-0.6168660988346345 
0.01829162294225989 
-0.1174168454770764 
0.240080084950507 
0.1440892071701155 
-0.001895654317702884 
0.2188853954574458 
-0.2834981751615728 
-0.0007356475115501555 
-0.002951482149875403 
-0.002951482149875403 
-0.0162713405714914 
0 
-0.000281493112806756 
-0.03413075966662669 
-0.09506571261596122 
-0.2815645469124614 
-1.239339318054566 
6.894245600229927e-005 
0.06292707283464265 
0.1141337858560686 
0 
-0.1080564726475262 
-0.03744477682803644 
-1.491074893997183 
-0.1183589411685909 
-0.1808525852925299 
0.05807099196002986 
0.02715157420749312 
-0.0141877629649488 
-0.4006740474564307 
-0.09693568534065183 
-0.001962056928367862 
-0.02727227284113115 
-0.08633476207034815 
-0.03021500412003799 
0.34142827634137 
-0.0143943912811385 
0.0009285849041100934 
-0.08255457105200414 
-2.117067174414836e-005 
0 
0.3518502249742418 
0 
-0.6540191210614537 
0.8283799161195234 
-0.001730363784916436 
2.610647654570653 
0.1466059455349319 
0.09190037228396501 
-0.1000202933113302 
-0.6219299939756691 
-0.6065616918203787 
-0.09646692554821684 
0.722693541407144 
-0.1430354197323564 
0.03383158028969864 
0.004013707790859946 
0.4191537039582043 
0 
-0.2745533433405542 
-0.4626206207670169 
-0.04264891923807689 
0.4697145499535338 
-0.00678359378306677 
-0.1048418030986225 
-0.1439599746081135 
0.349767717600056 
-0.1760079554135092 
0.01502789557243715 
0.1661411789714939 
0 
0 
0.1759634708617078 
0.733121684775037 
-0.06176308662992812 
-0.2532600912742382 
1.554906492704562 
1.459655657137331 
-0.7332949459810524 
-0.2441496469599133 
-0.01047742028802427 
-0.3526438314364178 
-0.3064356086174159 
0.3969799677691765 
0.02692966691037097 
0.003396229228680923 
-0.09252450013915475 
-0.0028330970230071 
-0.2484778016501212 
-0.006752502521610234 
-0.4588867967821192 
0.3986639062435289 
0.2399572204918028 
0.2860238593826036 
0.4219918806091592 
-0.117890797479492 
1.346561169004247 
2.755484659913195 
-0.003366124581350123 
-0.2381469855915001 
-0.2267746513788424 
0.619386774038532 
-0.1671514724767972 
0.2738529042407641 
0.3072757808954483 
0.01618359031410407 
-0.005943787545801385 
0 
-0.03241430935124101 
-0.0691857908159378 
0.02882456842166073 
0.02882456842166073 
0.02882456842166073 
0.02882456842166073 
0.01742686043569705 
0 
0 
0.7083553752364168 
0.05854404560395341 
0 
-0.09925206033748707 
-0.002759815358389504 
0.1245539560557535 
-0.07729267961643746 
-0.6815156128786256 
0.8489093480568364 
-0.7198525021737895 
0 
-0.3906596162583141 
0 
0.004367244978290311 
-0.3728771740810197 
0.8714773209387076 
0.02127050023006504 
-0.05767630912183996 
0.5047312718958693 
-0.2230372848718954 
2.060879001390879 
0.1427547054100984 
-0.004660758771943188 
-0.08789542873734918 
-0.02738114162403547 
0.1574245221248248 
0.6915548332702897 
0.4463471168080043 
1.085746660914423 
1.085746660914423 
1.085746660914423 
-0.3925025332821566 
-0.1121497725228111 
-0.0003183703478862166 
-0.1259023683975866 
0 
-0.01687455824761329 
-0.01687455824761329 
0.003793515821541774 
1.561335161168029 
-0.3191963756407841 
-0.009355562481708064 
-0.2976566760099526 
-0.01071600589883652 
0.005884758442891152 
0.4630187264906285 
0.345725848384895 
0.3705664933672634 
-0.04508800244850739 
-0.2683803181137863 
-0.001471816820504058 
0.002099575901389532 
0.008658000146080678 
-0.004275984655135397 
0.2548581244973311 
-0.1932847536112219 
-0.146921847899196 
0.3784792253520174 
-0.01157982707017742 
-0.01157982707017742 
-0.3144443100793131 
-0.3136504876151712 
-0.02286860145712243 
0 
-0.2521325690646432 
0.4611562059800953 
0.01461201915785221 
-0.0007577353821298502 
-0.09535122993679462 
0 
0 
0 
-0.1673852910246305 
0.7970481954391435 
0.04545609518838149 
-1.032623782276567 
-0.03602270889878607 
-0.01734022898516191 
0.2167980488239105 
0 
0 
0.01256104479520284 
0 
0 
0 
-0.6448921511941812 
-0.4268506711250943 
0.263589857696335 
0.06713576478222767 
-0.02102593084978193 
-0.7261273787234206 
-0.003464318899118957 
-0.9794927257421559 
-0.04256926482110219 
0.3460753498280494 
-0.4596056195803457 
0.006070852031470643 
0.006070852031470643 
-0.05561144229197088 
-0.009571561855664837 
0.3680757480604891 
-0.07440463910744999 
-0.2470013077136025 
-0.5574952750352877 
-0.7545534248801479 
-0.1706917451156382 
-0.008240086834418908 
0.002342687039108467 
0.5787547641985195 
0.6132975314219342 
-0.01872338169359042 
0.009123278484249205 
0 
0.1023481928889629 
-0.4545561453127566 
-0.8439953890533323 
-0.4714489412198375 
0.2267656964211435 
0.2278171027827344 
-0.03779970978261409 
0.2260026098716671 
0.02507330953366815 
-1.588828167447902 
-0.008891551250340779 
-0.004232590049708541 
0.001922408163792149 
-0.4507892335631169 
-0.05192222624953909 
-0.05765488660549483 
-0.07083183606883946 
-0.05408577659526119 
0.5018245150185542 
-0.000368337547399643 
-0.009591818370689453 
0.01526886862227381 
-0.1048645486887042 
-0.1249383544602204 
0.03488318471486912 
0.03384241981973016 
0.1654776399786395 
0.4465276245455223 
-0.1384136759729525 
0.2519844779492358 
-0.2099094652847664 
-0.3564216431104587 
-0.2661585752494696 
-0.2571495400845681 
-0.1201683083956839 
-0.01920790105871778 
-0.1396106215255227 
0.02244381371940632 
-0.03881446026726707 
0 
-0.2155944203061445 
-0.2488446327458966 
0.9450930638828383 
1.623352003577575 
-0.2244096090645527 
0.6904647311983394 
0.4171292808328949 
-0.0721970338913684 
-0.0721970338913684 
-0.5611847707290191 
-0.05492451051773897 
-0.007051194886520508 
-0.3803690096889736 
-0.1601573781762007 
-0.0006015640473728844 
-0.05263077574737766 
-0.06503592028507578 
0.0001857874018071858 
0.1599522564150608 
-0.8621883207616403 
-0.1721883678852813 
0.0411682478788602 
0.2408134369590876 
-0.5162738565094486 
-0.04559110572998108 
-0.2288873930197834 
0.001476158152240264 
0.001476158152240264 
-0.02839238878223681 
-0.6930460893864879 
-0.3791727565447456 
-0.2391143055526543 
0.3705768275350592 
0.07409874289826451 
0.07382449415787876 
0.01771345670049515 
-0.02791412823842005 
1.036580192046202 
-0.02519894841768468 
0.02089146049079845 
-0.001940546856881961 
0.05135814813901113 
-0.03629580362697669 
0.7218816206017575 
-0.06954993759562266 
-0.071500230090707 
-0.06922714578035709 
-0.03538474820708187 
-0.06318195693731252 
-0.1334324294228305 
-0.04754397610346188 
0.0565492473270448 
-3.783522489951989e-005 
-0.1075139932978308 
-0.05885630214999118 
-1.205067650054924 
-0.2753797250171804 
0.06765843664361051 
0.02003185558273418 
-0.2127488707929392 
-0.0004323396181777574 
-0.09537494593071451 
1.22763490481019 
0.4215397856665685 
-0.1489913091999613 
-0.1701541498026936 
-0.3653182734250053 
-0.03979896216635277 
0.04649151501847589 
-0.006531977529014063 
-0.01491624934954015 
-0.1627521978560252 
-0.09497093276109025 
0 
-0.6062073079954632 
-0.008404802979526723 
-0.08223024981928941 
-1.030186596931309 
-0.1628807914494019 
-0.07850887817357408 
0.1063714323692177 
0.4607163365915893 
0.1231358257343831 
-0.09439911884693832 
-0.0002560134591049099 
-0.08757870387506905 
-0.0344648370932569 
0 
0.4614551014578849 
-1.225257556721079 
0.4720241140356716 
0.2537132303306625 
-0.09303851501595711 
-0.05424685857957524 
-0.08335965494873444 
0.3171122153749923 
-0.1493452508639775 
-0.4974149961254395 
0.3247024393239101 
1.085347335494097 
0 
-0.04129254878576284 
0.09806694081317458 
-0.6815754476899655 
-1.389991109938687 
1.194355443910041 
0.1005057301164693 
0.4467967862092103 
-0.1127327568518927 
1.565223049713937 
-0.7055474910882519 
-0.1193198113467319 
-0.3164563144018338 
-0.3164563144018338 
-0.371779069419411 
0.37660602675646 
0.3541640329241341 
0.3174397407181647 
0.05627006125587149 
-0.01029968779937033 
-1.565198002850696 
-0.9361516010617529 
-0.4850485686311829 
0.1559751049699452 
-0.3100911054563468 
0.2784459952215947 
5.398052084462085e-005 
0.1000310846689841 
-0.2113480825441238 
-0.3410200828207768 
-0.1336982804682636 
-0.02363435847465456 
-0.03847672651248318 
0.189358262474764 
0.01610315873226699 
0.1763357149735277 
-0.01059090472601528 
0.3400337092986637 
0.5302941805184882 
0.5475456414821628 
0.149044983644824 
0.03723890846023944 
0.03399315395681292 
-0.007373124805943293 
-0.2390683107215427 
-0.002952270453035855 
0.06917364133044562 
0.0008322834433115704 
-0.09585765569221548 
-0.007051194886520508 
0.8234638432526671 
-0.4238244560264199 
-0.0453236761329179 
0.01388963531741811 
-0.4150447313395619 
-2.167814509967015e-005 
0.09389651529020451 
-0.004404503067257396 
-0.005029910328467911 
0.003183254249734191 
-0.005104675962785931 
-0.009607083898938213 
0.6559861259663505 
0.4596616938639097 
-0.001822134712702649 
0 
-0.005029910328467911 
-0.133653205093333 
0.3126211209078096 
0.05870631067922922 
-0.127270115185275 
-0.02715651708987579 
0.01950697997180987 
-0.03537453675014094 
-0.119118790140021 
0.2037939493500783 
0.5682098881591594 
0.2678941474256868 
0.7095763166139636 
-0.1496312494911556 
-0.006447507254266062 
-0.4087693210299121 
-0.009011883109902964 
-0.03614953531471325 
-0.400748500958456 
1.063704403935188 
0.03460146554839905 
-0.01857468181099811 
-0.004094286617206901 
-0.04990811048491122 
0.001513804340223548 
-0.05106979972628382 
-0.02859941690207647 
-0.008287712544778008 
0.02715153598788126 
-0.2448814478524365 
0.1371427835683598 
-0.3614749689359332 
-0.6545116589476479 
0.06295198451362545 
0.04629841214571683 
-0.004209279303424437 
0.02897695856640197 
-0.3609050803852031 
1.493337237044794 
1.487596242355576 
-0.07586887536183121 
-0.1555817789765178 
0.03804874298402432 
0.7515289802183384 
0.177583372289245 
-0.0426984996720903 
0.7654445642895533 
-0.08151003828787082 
-0.0002773329845277141 
-0.009879302600550184 
-0.04029644159644925 
0.003846794132275388 
0.003846794132275388 
-1.950674690736476 
-0.5377696399112206 
-0.3866179593767735 
0.04597497718607626 
0.03800315629858715 
0 
1.134448178911539 
0 
0.1138633920405719 
-0.007492137018652539 
6.830993120019849e-005 
-0.004835102492995858 
0.0002936849423164429 
-0.1683756336938714 
-0.02691306450687073 
-0.08370966536012799 
-0.03490954689177894 
-0.3648308375638047 
-0.0005895885642916628 
-0.06281776695344528 
-0.2628676171124416 
-0.1783578842249229 
-1.748811222990094 
0.6337307017785402 
-0.01092856549731623 
0.4560776157997655 
-0.09561271321505775 
0.4575192381907003 
0.4575192381907003 
0.6709591801594423 
0.5194562647945986 
0.414934009780203 
0 
-0.700716998938788 
0.1541295668080141 
-0.2563971321631156 
0.05398384080816814 
0 
0 
1.001211647762183 
0.1096822713103077 
0.119922778693463 
-0.1525505868567714 
1.071166748121231 
-0.4301053779609089 
0.8528606552511104 
-0.3522393755320536 
0.1232934630581425 
-0.006055940255105885 
-0.1427390648236382 
0.2406481277898746 
0.6478604472269458 
0.5988371512056565 
0.2161130045476602 
-0.02458155382561359 
0.13998949341956 
0 
0 
-0.03118619107951589 
-0.8115885442491784 
0.3955155309294079 
0.04203424953450698 
-0.3770693421057795 
-0.4605433698780219 
0.1730066704970137 
0.01121049376380146 
0.04353465937724461 
-0.004866401104565146 
0.06364715983538084 
0.1658897272583802 
-0.9674673496634365 
-0.006818819661704478 
0.02003185558273418 
-0.003283330233151192 
-0.003283330233151192 
-0.003283330233151192 
-0.003283330233151192 
0.06330876693517547 
0.01756811387378683 
-0.2433243485190428 
-0.1444041137034392 
0.1362979054208905 
-0.004810196032826256 
0.05900551113834325 
0.1140000011218783 
-0.05378748389098035 
-0.1602249481189292 
0.04127137226594636 
0.03776290713159665 
-0.1638284343549238 
0 
0.03622684277950526 
0.3919853747220692 
-0.1066963040957394 
-0.1018666926774022 
-0.1057188426551409 
0 
0.07784034280041334 
1.447963616978657e-006 
-0.6957005137996039 
-0.004108708163341142 
0.004367244978290311 
-0.09418553069865499 
0.005737696026606809 
-0.06126391379824328 
-0.0005024343415920245 
-0.09337369731914512 
0.0267215921483669 
0.2488256742852971 
-0.2721752092312504 
-0.01962005227087146 
-0.04984961063611149 
0 
-0.1540657361208664 
-0.04003260899458017 
0.003705631669310634 
-0.01322495670689104 
-0.08222121706800011 
-0.7447280344033384 
-1.50590856222919 
0.4767906888264665 
-0.0006492060457614061 
-0.0443698709216283 
-0.08412208458634649 
-0.1445731208775291 
-0.03964015079789508 
-0.1506607545980944 
0.199659968030298 
-0.06281396137630664 
0.5269302315091318 
-0.02328535073559094 
-0.003445970445704722 
0.05019309285208204 
0.05019309285208204 
0.05019309285208204 
0.05019309285208204 
-0.1332720170915052 
-0.006365254699744457 
0.2277801379772559 
0.2277801379772559 
-0.04166193063370387 
-0.108034724684012 
-0.09954988660408415 
-0.02514384677859035 
-0.09013876759869617 
-0.1391358218841193 
0.0118052496656824 
0.01862113708464928 
0 
-0.01848863761240132 
-0.3788142144474217 
-0.04249623253975261 
-0.08279314787385379 
-0.08279314787385379 
-0.08279314787385379 
-0.3469733402124665 
-0.2607003720600919 
-0.008358661403293855 
-0.04371924520743113 
0.04375492289794968 
0.04981849839137686 
-0.004706129303173165 
-0.02176978887387938 
-0.002452659416275397 
0.2189837675815857 
0.2201382157571379 
-0.07218011560357882 
-0.8497257386944987 
-0.1792150811343319 
-0.01323942178739347 
-0.04284556306127346 
-0.08691174993093066 
0.3921409736651989 
0.6448853607152359 
0.3604603565593414 
-0.07753769760281593 
-0.06847349955427411 
1.219043990826422 
-0.299240952151731 
-0.02133813946410301 
-0.03556579603432834 
-0.2949010908911129 
-0.01521671138482931 
0.1309602564219744 
0 
0 
0 
0 
-0.3367712945324325 
0.3585949142153364 
0.1555233671144082 
0 
0.1395612197611306 
0.4444200241733113 
0.3036658506214232 
-0.02226397057699931 
-0.9418099772315201 
-0.1268504390328432 
-0.2497023251532739 
-0.7221014629179803 
-0.7221014629179803 
0.007420670738763927 
0.1123999146738137 
-0.8958059951687327 
-0.02185152207009206 
-0.08624968852287338 
-0.210348232228126 
0.08108443602831265 
-0.002415068860952217 
0.05089452804817148 
0.003970926418096207 
-0.03257929565109074 
0 
0.1147286370325114 
0.02120890716321612 
0.03269572774169464 
0.2307744610314186 
0.2307744610314186 
0.006110502412005783 
-0.004108708163341142 
-0.004108708163341142 
-0.05327801622736742 
-0.004730231125244764 
0.0325159528664767 
-0.01492453011551801 
0.04871119678367945 
1.035835398747751 
0.04198510543303184 
-0.007348994546088351 
-0.01664202524847303 
1.009671904414519 
-0.2633874300706248 
0.02071297716425092 
0.02071297716425092 
-0.006971353950925627 
-0.008260064180849231 
-0.005722507011986362 
-0.005956534546602588 
0 
0 
0 
0 
-0.1151796935150919 
0.0003945568440972037 
0.1945764088940213 
-0.05353922683219236 
2.960027087138441 
0.1887262747445437 
-0.06416564797412169 
0.9640402929021716 
-1.39589425174674 
-1.048235596963673 
-0.008865682770429866 
-0.002791093150982355 
0.0140759527627784 
0.7003242422049177 
0.1415034233535058 
0.2313527006759822 
-1.117039611379474 
0.5111811747975933 
0.4637811639896579 
0.0176605921030312 
-0.005518410433696221 
-0.0414662245858924 
-0.0008409693725372148 
-0.0900140955302165 
2.249523060704789 
0.2615752308115938 
0.3307715482179295 
0.0002058589429314699 
-0.01136809022176236 
0.1470317299562626 
-0.06667298893208901 
0.003370480519947827 
0.01215845007845483 
0 
0.2746240265390582 
-0.1453014371145245 
0.02543263032433335 
-0.02937975485997477 
-0.004031728148121956 
0 
-0.1441266305786013 
-0.3371505162954112 
0.166824020250342 
0.1805391243405992 
-0.0978783074445094 
-0.03510389066479333 
0 
-0.06203716428450434 
0.0009614268325592191 
0.01298221545718569 
0.1994932824108398 
1.25141997001494 
-0.8221679278274212 
0.3057510120616937 
0.1212263064456465 
0.1086733153813011 
0.1086733153813011 
-0.4280261480438559 
0.8250179637663078 
-0.02051923891581284 
0.0002937048755517663 
0.0002937048755517663 
-0.0002835960868848815 
0.01829162294225989 
-0.1504049975963826 
-0.1504049975963826 
0.7405595240445927 
0.3250077124138752 
-0.02766739813294785 
-0.02766739813294785 
-0.02766739813294785 
-0.02766739813294785 
0.1489426586100073 
0.1397331718211469 
0.03103491963737431 
-0.1146815949319449 
-0.01035794406860143 
-0.259846058380095 
0 
-0.02766739813294785 
-0.02751995701447037 
-0.02766739813294785 
-0.02766739813294785 
-0.008946786297312924 
0 
0 
0 
0.01631939880633581 
0.31855139595155 
0.2101603798343845 
-0.002716431109446181 
-0.1217333122733734 
-0.1217333122733734 
0.01829162294225989 
-0.3769473381405331 
0.004625327529129769 
-0.008317940548904499 
-0.07971883081962453 
-0.09513140221007982 
-0.09513140221007982 
0.1386601040210159 
-0.5204017237942975 
0 
-0.04664015481282213 
0.687466082779426 
0.4400832333256957 
-0.08065965690569296 
5.273407639434393e-006 
-0.4130889904532612 
0 
0.8844433350245711 
-0.494166594256463 
-0.191518185563089 
-0.09836670088681421 
1.207654492351992e-005 
-0.0556093593296914 
1.223896750991941 
0.0794164623725241 
0.358263995668013 
0.126037095636627 
2.323625766202926 
-0.01858039881181421 
0.2207487486488958 
0.07348373683134375 
0.6635690072234415 
1.360215307520291 
0.9270130916742114 
0.9270130916742114 
0.9270130916742114 
0.9542331853865321 
-0.007833227698503557 
0.05167164425399475 
-0.007244608651643416 
-0.006284545913580792 
0.02387408773933611 
-0.01904760539234811 
-0.05234743890737847 
-0.04721143833499308 
0.2088895454308121 
0 
-0.4001251828127839 
0.55486713932684 
0.31855139595155 
0.5088039048430689 
-0.689356487597789 
-1.498714530339502 
0.04669355493643698 
2.917034230861942 
0.5228452635338796 
0.3295293534527327 
-0.3173029255502645 
-0.0004690217354387943 
0.1771011076183709 
8.887505199935641e-005 
0 
-0.0004568935958772608 
-0.03118619107951589 
0.4687729627085141 
0.4687729627085141 
-0.001271726930673553 
-0.390688439843535 
-0.390688439843535 
-0.3623303450181978 
-0.0007347423166879363 
0.5061397423400366 
0 
0.1823007964882626 
-0.02010273946771152 
-0.2269296486341184 
-0.357388924956764 
-0.939238785805442 
-0.01571759404436979 
0 
0.1911962542085509 
-0.05279882064668492 
0.005742370320781452 
0 
0 
-0.1465085878993685 
-0.005153500739213536 
0.128639679009886 
-0.006907252276675584 
-0.06147926385654007 
0.006889653591026902 
-0.000435512249094437 
0 
0 
0 
0 
0 
0.3204623461795442 
0.021094238430294 
-0.008043629228759628 
-0.02693555892898371 
-0.02234271809674469 
0.02363609749571505 
0.116193593342871 
-0.0007294273305994167 
-0.005029910328467911 
0.2458704762565441 
0.2458704762565441 
-0.03430902247071922 
0.003630621406755133 
-0.1312078990657116 
0.3424493169215594 
-0.004246674167944463 
-0.03338718903883145 
-0.425827940893828 
0.002333959976649295 
-0.4075462330401068 
0.3001679598265263 
0.00551819823667737 
-0.002831790979625907 
-0.002769997179186651 
0.02081354957825171 
-0.004094296306846854 
-0.2767909807245341 
-0.007147871869973502 
-0.007022822389335707 
-0.09447569296764483 
-0.05531921795151162 
-0.05029597207551917 
0.0002354704851211985 
-0.8954949738970378 
-0.02228474936048656 
-0.001835937368665821 
0.06059705292604964 
0.05994521068948096 
-0.2486666818769646 
-0.1028876778487435 
0.0105651303245125 
-0.003102367354732287 
0 
-0.09879518622308876 
3.877688285445488 
0.2349795432234216 
-0.2351857703747499 
-0.154084893147157 
-0.003875016812825083 
0.3454714431153985 
0.2278653256533569 
0.1957299852675399 
-0.1370403225649979 
-0.02247493602978425 
0.155816451805646 
0.08626272553257403 
0.02320198113646606 
0.1999210168122648 
0.320619522425168 
0 
-0.1997350102307716 
0.2239431227830468 
-0.1500617978568759 
-0.03132091329500621 
-0.0003638894377646678 
0.303509542194189 
0.6556434325653067 
-0.1335849193853614 
0.002366555125887026 
-0.088414844679077 
0.04246772638058428 
-0.05057928391293854 
0.0007168196901996411 
0.0007168196901996411 
0.0007168196901996411 
0.0007168196901996411 
0.0007168196901996411 
-0.4755137720661994 
-0.001925660414055426 
-0.001925660414055426 
-0.02042343565015435 
0.4788594951497373 
-3.783522489951989e-005 
-0.8404959122260961 
0.8934643642098408 
-0.01754697789753446 
0.1675521427332907 
0.02251167054079346 
-0.1590920718098092 
0.03699516853424741 
-0.09492370762293909 
-0.02262599961653397 
-0.02536993364090873 
-0.1075352470950677 
-0.02366788550171975 
-0.1593758705794701 
0.04705359734266007 
0.07923109214713085 
-0.2596959428382497 
-0.08232963783324011 
-0.04059843547054726 
-0.0926163532984858 
0.008343840024644408 
0.03418933829355844 
-0.0204670661657647 
0.05908918663328378 
0 
0 
-0.2393927797020928 
-0.03183760081841625 
-0.08501251172778279 
-0.04945453469382724 
-0.03986580891406943 
-0.01855123581395488 
-0.03964015079789508 
-0.03986580891406943 
-0.1633414253777678 
-0.05046264282029175 
-0.05693923138908258 
-0.02538522277920163 
-0.02203943532210021 
-0.01453158882743584 
-0.01544850092115032 
-0.02038768623739244 
-0.09220272739521675 
-0.005333384559908759 
-0.02128278606837715 
0.493643430467507 
-0.0002823335061224803 
-0.05954835968644813 
0.1252128481282966 
2.007289837772982 
0.023244402773149 
0.19724527302304 
0.2380786060189073 
-0.5444653923796249 
0 
-0.02766739813294785 
-0.02766739813294785 
-0.02766739813294785 
-0.02766739813294785 
-0.02766739813294785 
-0.02766739813294785 
0.06204333033398513 
0.1975110600847984 
-0.08354756644660909 
-0.3641981097519592 
-0.01042224807822001 
-0.01042224807822001 
0.2459387870114045 
0.2459387870114045 
-0.8801686428017843 
0.5761342864519 
0.1128921866243427 
-0.06150213033916417 
0.04517752957276882 
-0.07900934750285485 
-0.01034567197024898 
0.007334935165595972 
-0.02510826871054861 
0.2329723144150186 
0.3060460959134115 
0 
-0.1234988373662729 
-0.1234988373662729 
-0.1234988373662729 
-0.1288428929255122 
0 
-0.9226369153525107 
0.4307504878908005 
-0.006009054438805722 
0.3238320367952399 
0.4561536473700561 
0.3946390433256201 
0.4400832333256957 
-0.2247303917382823 
-0.2247303917382823 
-0.07534814294931225 
-0.05305965710869316 
1.959071442872944 
-1.111572847513117 
-1.206273668902705 
0.2304746193119788 
0 
-0.9886994974606461 
0.2541285838961676 
-0.2382033140267598 
0.02883377657162794 
-0.2605716899109947 
-0.204692526774044 
0.06098439419115154 
0.06121478666487886 
0.01118254256635052 
0.0003540707189312646 
0.08759681738288344 
-0.238451306212098 
0.3989695699285993 
0.0004358048113741294 
0.2790339099938793 
-0.07457716266335987 
0.1290920927609858 
-0.1494637056036339 
-0.02208608339584373 
0.06243047536678952 
-0.05030211009478169 
-0.0689846944555547 
0.1971047006357765 
-0.2738057075752584 
-0.004063027905552267 
5.398052084462085e-005 
-0.083221935997862 
-0.001117721631568584 
-5.502067812573663e-005 
0.6853944961939813 
-0.1535107250032047 
1.644704493024711 
0.1841339971390189 
-0.01211657144600686 
0.04061722329527433 
-0.04492087176428029 
-0.04492087176428029 
0.0005511382452297215 
0.6096416301658576 
-0.5261314025565742 
-0.106679659911933 
0 
-0.1131056885172006 
0.02366259126007508 
0.4344515738394261 
-0.005524143446253746 
0.005737696026606809 
0.5453272407478547 
0.1238839455264006 
-0.003845108349526282 
0 
0.4467373763415703 
-0.01940361066569117 
-0.01940361066569117 
-0.01940361066569117 
-0.3898564924271525 
-0.02548231439965623 
-0.02548231439965623 
-0.02548231439965623 
-0.3146266969983353 
0.1943494124313245 
0.3321915457962407 
0.4085635755587985 
-0.6976772467182784 
0.9140844455088536 
0.9140844455088536 
0.9140844455088536 
-0.01193985503176558 
-0.09934768847491507 
0 
-0.0174921665683095 
3.615441801005171 
0.04375492289794968 
0.009940997514559003 
-0.000482690550680878 
-0.1128026937655162 
0.1860005362975106 
0.2358281940624154 
-0.0002396647009848757 
-0.08699056108044065 
-0.008932570675612791 
-0.01917985500347096 
-0.15336435416523 
0 
0.04926460030879239 
-0.2905926110581216 
-0.1070831507537032 
0.01015719132446697 
-0.39608550629825 
-0.07114814558120466 
0.0730815112679508 
-0.01011106314574028 
-0.05718284559343291 
-0.02773643717692091 
0 
-0.4345425204762111 
-0.1066160233268108 
0.7883147784969754 
-0.003855584745949168 
-0.3074026267649561 
0.7964506299817351 
0.7964506299817351 
0.7964506299817351 
0.7964506299817351 
0.7964506299817351 
-0.1246940893052715 
0.1746483528191529 
-0.5525695526040264 
0.2455571667075074 
0.5409465468121789 
-0.0005117849406671005 
-0.01260904739977646 
-0.005501883719727724 
0.2372085541896666 
-0.2115576269107537 
0.09257856179872681 
-0.07634122391277298 
0.5279534585876634 
-1.517214674408269 
0 
-0.01785252093594404 
-0.2052388496821775 
0.1303570320323559 
-0.1191870100963462 
0.7883097338987689 
-0.5126401959550202 
1.447302818791075 
-0.07724072213954475 
1.255538922982698 
-0.06421068275356397 
-0.1085127237054779 
0.2321701485959098 
0.02527466074214526 
0.5917097199132029 
0.04669355493643698 
2.884354136390751 
-0.02425033281445046 
0.9178894883522054 
0.05305359523147943 
0.0236089072217164 
-0.004108708163341142 
0.03347445426658949 
-0.01495031628684125 
-0.01495031628684125 
-0.1001998684654369 
-0.09279983452356955 
2.610647654570653 
0.00622679770877775 
-0.009584010218191155 
-0.009584010218191155 
-0.07128091729264038 
-0.02888453720741636 
0 
-0.0409437962361541 
0.01145955342378168 
0.09472277570314301 
-0.004363891454078296 
0.009900381153661994 
1.800592895819944 
-0.3407871141764293 
0.009923714210491449 
0.003629591866217507 
0.003629591866217507 
0.0004403422017443449 
0.01130448907584345 
-0.02280983553265711 
-0.02280983553265711 
0.02968393125205601 
-0.00275589786035495 
-0.02430447914238698 
-0.012075277693988 
-0.012075277693988 
0.3705768275350592 
-0.859221561741078 
0.444107018347974 
0.04953812170088222 
1.348987132453985e-005 
0.04913214756522072 
0.04913214756522072 
-0.004678466902141217 
-0.01955425182358302 
3.631447857408038 
-0.03202815332844554 
-0.9054557998315836 
-0.00519390076055762 
0.09793209159675169 
-0.009696322727300897 
-0.1058099968589675 
-0.009696322727300897 
0.1474961202068386 
-0.01401521338872253 
-0.01401521338872253 
0.0005047529850930112 
-0.05009760022245484 
0.002488914770639147 
0 
-0.0152284320678124 
-0.1092824935551457 
0.2225605055863029 
-0.2204226855200545 
-0.1274965989472455 
0.1030604010539442 
0.1791572474035899 
0.2418250498334233 
0.06611992665378813 
-0.1459577445110074 
0.04472296615372442 
0.04472296615372442 
-0.06303550205674458 
-0.02332588614259254 
0.01549334807574883 
0.2572934193993947 
1.068478051291381 
0.05002692815678878 
-3.504689312690521 
-0.01446757016250285 
0.2710277625608153 
-0.02398173582723242 
-0.01843158262709519 
0.4656720645148146 
0.1319326221866226 
1.027788689684965 
-0.06776225036437347 
-0.04558396590735461 
-0.08448188942005017 
-0.5195136280995748 
0.01441054345787636 
-0.09009414422476747 
0.0625987186513607 
-0.001306438324090596 
0 
0 
-0.01506157554190741 
-0.04509234352744916 
-8.882204848099527e-005 
-8.882204848099527e-005 
-0.02139635736296636 
-0.6757197906995126 
0 
0.1363138390743252 
0.4699529649202542 
-0.0009882329009002083 
-0.001471816820504058 
-0.4640651615883106 
-0.7600694828634336 
-0.004725920461855891 
-0.2474527786630669 
0.2847385062109034 
0.2847385062109034 
0.2847385062109034 
-0.02766739813294785 
-0.004835102492995858 
0 
-0.002616851666052696 
0.009769998376268029 
-0.02766739813294785 
-0.02766739813294785 
-0.02766739813294785 
0.2160638112665786 
0.6678637778181786 
-0.7417904492440395 
-0.6795746383913809 
0.3132167091608151 
-1.006586338814227 
0 
0 
0.1559973702972088 
0.1559973702972088 
-1.421928832498504 
-0.6019262370658315 
0.3893313682165892 
0.1345591358773246 
-0.0380164795088809 
-0.4853008438064311 
-0.001945037973379745 
-1.985137033336645 
0.1574282117691015 
-0.06512777660086952 
-0.01486286488917107 
-0.07507708265995582 
-0.02693088003615528 
0.006565819462182471 
-0.03893981962401986 
0.01767471125744517 
-0.005806037198959561 
0.06877295567903266 
0.000217447718680427 
0.1527559436439649 
-0.009882036325440177 
-0.2727321627273648 
-0.1729994379891671 
-0.1739853096816479 
-0.001879349863555434 
-0.007898917409232794 
-0.007898917409232794 
-2.631070807192341 
-0.01306881091526649 
-0.1022023853570066 
-0.1022023853570066 
-0.1022023853570066 
-0.008977465626646504 
-0.01229009955436459 
-0.03349337009437183 
-0.03349337009437183 
-0.03349337009437183 
-0.05989562045009131 
-0.1323754233300798 
-0.2319356031615559 
-0.03349337009437183 
-0.03349337009437183 
-0.006060133454215345 
-0.09928596223945867 
-0.004134629161996487 
0.03226729070419317 
-0.005452330265090205 
0.01055970651013959 
-0.006146650235769655 
-0.0008693468290495054 
-0.1001015390772863 
0.03215619821753082 
-0.3263331523974694 
-0.004248848594435899 
0.126037095636627 
-0.2045346283973243 
0.7218940563546248 
-0.2045346283973243 
0.0821899781316276 
-0.2157251823756177 
0 
-0.2039248652738052 
-0.2039248652738052 
-0.2039248652738052 
0.07784034280041334 
-0.1636184179595501 
0 
0.6635369768908336 
-0.1815947480581246 
-0.0002652677883725118 
0 
0 
0.2270846933690632 
-0.007910933170247637 
0.08860245484584253 
-0.4052909634060735 
0.03341584033900333 
0.6493658277358109 
0.67964954394748 
-0.1117042359917623 
-0.4347483497524999 
0.1474549435768174 
0.1376501952200354 
0.1376501952200354 
0.1376501952200354 
0.1376501952200354 
0 
0.008343226021834628 
0.007648186785804107 
0.007648186785804107 
-0.03221306076163274 
-0.002277166636345004 
0 
0.1899613494511494 
0.0007720200924626946 
0.2300766028495782 
0.03286602077613475 
0.1852164132116635 
0.001016683156608635 
-0.01565988649819944 
-0.01565988649819944 
-0.2218374005596532 
-0.3411726543747145 
-0.2138359984451548 
0 
0 
-0.08971792465853827 
-0.002062489940697103 
1.7419967278154 
0.004944489170794968 
0.33953359422285 
0.03665594860107272 
-0.02913290137318678 
0.01040530695941101 
0.05580544508371445 
-0.01584838590952579 
-0.01694848930489799 
-0.6991576445374356 
-0.1354128266009805 
0.3218788045579851 
-0.04022947269105906 
-0.05088282029569585 
0.2743937056841542 
-0.2389140633142986 
0.002342687039108467 
0.002342687039108467 
0 
0.2740936716741181 
0.5063336439565469 
0.1333870351536978 
0.1012833937234644 
-0.6289293931914285 
-0.2668051879201876 
0 
-0.00145474995261458 
0 
-0.3586308831547569 
-0.03982038639631463 
-0.3276679323126016 
0 
-0.04557545466743884 
0.1764397252213762 
-0.1104180261678063 
0.08620726049366449 
0.1809285419612494 
-0.009240522304697699 
0.3615263328299436 
0.3615263328299436 
0.3615263328299436 
0.3615263328299436 
-0.06835194019574782 
-0.07561640955746722 
0 
0 
0.05109332089551156 
0.01774009557200443 
-0.1954090514659808 
0.3691446833821381 
0 
-1.234930876359441 
-0.01135192982463488 
-0.003013680920962565 
0 
-0.06931163534262753 
0 
0 
-0.01302414117364775 
0.0001260761153532278 
-0.009811986434274353 
-0.01975684993290348 
-5.657456791328275e-005 
-0.006346705691609189 
-0.006346705691609189 
-0.006346705691609189 
-0.000140572387265324 
0.1113525221168877 
-0.007435532611320859 
-0.007435532611320859 
-0.01259638463009201 
-0.02267681357072794 
-0.006431352540193789 
-0.04083213830747924 
-0.08086708679697366 
0.492357686589797 
0.1547591601431438 
-0.3172371756713971 
-0.2431454049551083 
-0.02952984479859323 
0.006965441604186657 
0.2899670630297065 
-0.07667323234031574 
0.01003759704624307 
0.07619673142602866 
0.1998917790975956 
-0.1488382782842561 
-0.1334080144145848 
-0.0007469218795426479 
0.0706175604052276 
-0.10510614840883 
0.008918279285189356 
-1.080880555677608 
-0.00145474995261458 
-0.001545620981912754 
-0.04066539113223913 
-0.06210663535739761 
-0.003375697972180429 
0.2585390552019349 
0 
-0.04064878521083652 
0.04558803171695432 
-0.05690815202694165 
-0.3926880992570179 
0 
0 
0 
0 
0 
-0.162200345545332 
-0.4676221330670629 
-0.6801013177321085 
0.001196904793347425 
-0.007080091465203778 
-0.1140425864394104 
-0.01484401562721724 
0.07004209072443496 
0.9591133890675069 
-0.1031708459135166 
0.0942987814054853 
1.058074087685267 
-0.06265921742767841 
0.1153645519189131 
0.004518976804033414 
0.004518976804033414 
0 
-0.02649010004774038 
0.449966946209915 
-0.04495837148080562 
-0.237517018035671 
-0.001322274390946322 
-0.8584179597543581 
-0.0116447492883744 
-0.0113570922982457 
0.1416104386998522 
-0.00269910029972645 
0.7637758520483876 
-0.1523806650304989 
-0.003837390348539037 
-0.003837390348539037 
0.0631318027331528 
-0.1933757664232972 
-0.28650568525444 
0 
0.1384821309607149 
0.05904079390147099 
-0.4061764124222506 
-0.001536710675379641 
-0.002543089063008088 
-0.1384305303306563 
-0.2189925587160703 
0.01800165694125307 
0.1146758541624982 
-0.2421246148527907 
-0.004127195476748372 
-0.001716355505055278 
-0.1392586950936535 
0 
0.04590478145117415 
-0.09619937319144351 
0.8523967976144785 
-0.01891207210027325 
0.0006993291863652484 
0.2418479230268618 
-0.6766341146157686 
-0.693789866207188 
0.04375492289794968 
-2.514350175284339 
0.2453737519678765 
0.2453737519678765 
0.2840014048088044 
-0.243740343812571 
0.08613278156796762 
0.5576466205931584 
0.86047353013198 
-0.6879785262348764 
0.04241133430438014 
0.1937525790091917 
-0.3029699158685301 
0.1688503761722774 
0.1644913737776751 
0.4248420154357768 
-0.3395187711283107 
0.01089498848720968 
-0.009462593251910659 
0.02228252725543258 
0 
0 
1.03229167127072 
0 
-0.07650063849386522 
0.01071694856134163 
-0.009967783343692459 
0.174285042333945 
0.3339972006213572 
-0.1044453446623697 
0.1023248881643972 
0.1032323428890184 
0.07505462030413207 
0.006674790917825049 
0.3945269437293176 
-0.01277367987758671 
-0.01277367987758671 
-0.01277367987758671 
-0.0201516219098637 
-0.02038768623739244 
0.2870613917301716 
0.8541287806041527 
0.05773651808628401 
0.05773651808628401 
0.09180074923224971 
-0.008337380343667348 
-0.008337380343667348 
-0.09262209026374996 
-0.09262209026374996 
-0.4627479432138939 
0.09035675909180997 
0.03345942802676461 
0.03345942802676461 
0 
0.09462167887230687 
-0.009495556564334892 
0 
0 
0.08874718001230293 
0 
0.2002504258797425 
0.06595839785509941 
-0.5286120197125889 
-0.01389446089937222 
-0.1739467696597696 
0.04487083218853036 
-0.0802721517263013 
-0.01211657144600686 
-0.007684180738315303 
-0.2379757532628825 
0.1000198779680656 
-1.170288851228197 
-0.04201867083133345 
0.1561000644439194 
-0.06523633180433267 
-0.04954933173511732 
-0.04954933173511732 
-0.02208591317823768 
-0.02208591317823768 
0.3033954376200085 
0.3814504394666944 
0.3814504394666944 
0.1720856787147813 
0.001513804340223548 
0.06503815329949486 
-0.07867963546916058 
-0.0519657763214392 
0.002312001488516889 
0.001653464425526212 
0.01774347806589689 
-0.01202526407850444 
-0.0695504080502628 
-0.2014756804676767 
-0.0006740523790838692 
0 
-0.0229760805441517 
-0.0207767861649301 
0.003529770066715307 
0.01697351304354824 
0.1616411715966416 
0.1616411715966416 
0.5142300496872444 
0.1644913737776751 
0.1148439839196796 
0.0303249666530539 
-0.01782414573033758 
0.03170838530851323 
0.1745828740225757 
-0.003340013458145732 
0.0158603996973044 
0.001951585664130761 
0.04765063820604187 
0.02462763479289222 
0.02943500598624398 
0.3775704445462305 
0 
-0.05075025636864117 
3.213152741781616 
2.137011618640983 
-0.007438953473711046 
1.192163243289838 
0.2293729188138084 
-0.08255457105200414 
-0.0005084615930531049 
-0.06835194019574782 
-0.3981431858922436 
0.2768219965516469 
0.02229300260778705 
0 
-0.005948781597311961 
0.002618440582213974 
-0.02337128120784311 
-0.0338883391401321 
-0.1575560005099154 
0.1633009255774977 
-0.00174722553962996 
0.6988774083920673 
-0.02031886162636941 
-0.03299369047925204 
-0.03299369047925204 
-0.8458043237609534 
0.2064491610826102 
0.2064491610826102 
-0.001932891740993716 
-0.001932891740993716 
0.5734105077592429 
-0.2158418280578568 
-0.3609819189960593 
-0.2689658423797276 
0.8685368647968703 
-0.1385333505018853 
-0.1290481962037306 
-0.06091364355450041 
0.2920560263587241 
0 
0 
0.1770033462020129 
-0.01096356757080643 
0.1234232107782244 
0.3211762695463109 
0.0001577943663512692 
0.8666093994144049 
0.2952424113860034 
0.4175670632636763 
-0.2542324926884796 
-0.003395298539160679 
0.03939451858311454 
-0.01858039881181421 
-1.345688193838535 
-0.02149767114786784 
-0.002917272336053631 
0.08815183839200803 
0.007555218262252172 
0.4776203206748353 
0 
-0.1463519338684268 
-0.09494410525751065 
0.2736897339866217 
0.1118230085526257 
0.1863227935277803 
-0.6565238051475155 
0.3260097805807796 
0 
0 
-0.003557587811379582 
-0.7132562525489657 
0.7078199041639283 
0 
-0.4245136217693703 
-0.2608284649833308 
0.3339972006213572 
0.2909217679661392 
0 
0.1438708037004299 
0.3760318514588719 
0 
0.04060300904232059 
-0.002960577136887633 
0 
0 
0.3720564886480049 
-0.0131321892255966 
0.2736897339866217 
0.09634881958024964 
-0.02696472953775424 
-1.012805058338875 
-0.03504024042681434 
0 
6.236752613020404e-005 
0.01307841047511738 
0.01630556670649249 
0.544065054648347 
-0.7335408185808039 
0 
-0.0823200537354493 
0.0808773295234255 
0.3013379489810771 
0.06684381413010571 
-0.7656036970099714 
-0.09808199580695345 
0.0003307230282643629 
0.04668030475490263 
0.04782344150060641 
-0.01894822936427022 
0 
0.0004366033945888733 
-0.2875660362213733 
0.2407104817937374 
0.03453711668506893 
0.007652476589082862 
-0.002085976694225175 
0.004084065581048164 
0.6735415063056764 
-0.001353017338811567 
-0.01337219880671318 
0.5602572665461733 
0.6448853607152359 
-0.01565988649819944 
-0.002230936808959617 
-0.1046112827740288 
-0.003990651619669935 
0.1961616127481998 
0.196188015687176 
0.2143552513862825 
-0.03897767371158734 
-0.004971525426786714 
0 
-0.06835194019574782 
0.03609468953946615 
-0.160064233076081 
-0.1079808376664301 
-0.03063682869148491 
0.2169464373920213 
0 
-0.2560538265523624 
-0.02137253358062083 
-0.02137253358062083 
-0.01524857484218215 
0.3702265280319331 
0.08328774388841645 
0.006039639958234437 
-0.4475673555337958 
-0.03602270889878607 
1.869301734099599 
-1.053054297654594 
-0.0939458194385857 
0.2859157443739211 
0.02192784031130475 
0.0003385113439861464 
-0.2983897222275766 
0.1501119501071479 
-0.004583361889888027 
-0.004583361889888027 
-0.004583361889888027 
-0.004583361889888027 
0.01246540762423071 
0.002924559742127738 
-0.0007907706953907559 
-0.04682609064986971 
0.1235170646339771 
-0.0187248836866832 
0 
-0.1536353914811551 
0.6205993770239123 
0.4527501139035865 
0.1071325369413561 
-0.3254360047485146 
0.4509141091482249 
-0.001716355505055278 
0.04090491957351587 
-0.08820425719766029 
-0.186768396558111 
0.02072004598559311 
-0.03897221710549729 
-0.05165025139429656 
-0.03897221710549729 
0.111598625586974 
0.1225789852547614 
0.4225530012758493 
0.1964790782072969 
0.004242601839378765 
0.04192135674134132 
-0.2417369846211644 
0.008688110926319813 
-0.03428005235601338 
-0.03413961217560531 
0 
0.00826219118556603 
-0.02449128901962211 
0.04646988883521938 
0.04646988883521938 
-0.08981537816214315 
0.3463405211303592 
0.2126507160124498 
0.06878131627103852 
0 
-0.00145474995261458 
-0.5203630072339576 
0 
0 
0.04375492289794968 
0.02443939452261792 
-0.1544122088162821 
-0.07824028894657772 
0.0002151666398935795 
0.0002151666398935795 
0.02929589508120254 
0.03233848341789058 
0.5985222332639185 
0.1212263064456465 
0.2742516745012759 
-0.01130760710049261 
-0.2839140374128383 
-0.3391855256757195 
0.05678887490932004 
0.002156760035409299 
-0.173313828608472 
-0.006575224173598412 
0.1599056978201356 
-0.01592819650156924 
-0.04325580968677981 
-0.04181320106185141 
0.4854807863404279 
-0.01414007467363073 
-0.001199258971068956 
0.19947011676809 
-0.03302518220328728 
0.424539840512445 
0.02060587259636849 
-0.00692185903355863 
-0.0003181560188012946 
-0.01032726696939366 
-0.01032726696939366 
-0.01021236386787362 
-0.01032726696939366 
-0.05502780727057187 
-0.0002377147966913494 
0.002938735246504632 
-0.1249469809078467 
-0.006013756241279517 
-0.083292609448505 
-0.03201898699449699 
0.14648133412981 
0.05668201374705933 
0.05198563041531863 
-0.008474290572314417 
-0.001273729280055622 
-0.001273729280055622 
-0.001273729280055622 
0.009346038202108256 
0.1384555051905606 
0.2903479092127673 
0.05363608808568694 
0.09739101098363676 
-0.3849645151258681 
-0.5376632523517729 
-0.000130380911050497 
0.001304791856434593 
-0.02079144533958612 
-0.08898516995727784 
0.6271483054552016 
0.03572426227864134 
0.0145045714918387 
0.06053636232054287 
-0.01104318558880712 
-0.002156355085672382 
-0.5442069509209451 
0 
-0.01183274291800739 
0.002602744762767308 
0.07471458050950529 
-0.03568794170300432 
0.1158948458209015 
-1.587562197836461 
-0.003131301620360372 
0.07779101813089134 
-0.007022822389335707 
-0.04161221857008439 
-0.01211657144600686 
-0.05067486897386996 
-0.006959143403763661 
0.04375492289794968 
0.04375492289794968 
0 
0.9567722065771099 
-0.0004785001079793753 
-0.0009609437948898215 
-0.007361009616326024 
-0.03897221710549729 
0 
-0.008932570675612791 
0.01045104291500979 
0.01045104291500979 
0.02208326384882102 
0.02208326384882102 
0.02208326384882102 
-0.08534639547142855 
-0.1106888415900097 
0.1809285419612494 
-0.0007907706953907559 
0 
0 
0 
-0.04810267208674608 
-0.2382361767827917 
-0.000130380911050497 
0.01190411291962998 
0 
-0.8672695026634504 
0.04090491957351587 
0.04090491957351587 
0 
-0.1343375338181998 
-0.5692479854963494 
-0.003396903736856099 
0.06879494271288567 
0.0636533269174135 
0.06879494271288567 
0.02546980897964098 
-0.009240522304697699 
0.005820304694309953 
0.05489185934876032 
-0.05033227177178098 
-0.1171729968061754 
-0.005029910328467911 
-0.04326298240687093 
0.3182442193485222 
-0.03407341678287081 
0.1177182914044023 
-0.1343375338181998 
-0.20677901330099 
-0.0643164361824201 
-0.02036555719976644 
-0.06923237603940961 
1.263576746473036 
-0.0024312185302406 
-0.0024312185302406 
-0.0024312185302406 
-0.0024312185302406 
1.181296987751075e-006 
1.181296987751075e-006 
0 
0.03035619401404719 
-0.0004053040998001879 
-0.8862332661135519 
-0.01838056751283984 
-0.01374577921961095 
-0.1385333505018853 
0 
-0.0127045368675743 
-0.009678245839878091 
-0.06224070088040767 
0.3757988768889544 
-0.02749054478726862 
-0.09276268015844336 
1.370744972356888 
-0.01364726697610158 
-0.02131220359830431 
0 
-0.07369388187188003 
-0.07925580105113472 
0 
0.4318605204044595 
-0.1223338408537305 
-0.1425897239095137 
-0.008372304436170453 
-0.7316398219025179 
-0.1567159903349488 
-0.06421068275356397 
0.4432037034523357 
-2.356524519520924 
0.04795526908764147 
-0.002885656960773348 
0.001824375122160813 
0.002770961729799917 
0.1672090233015147 
0.6613224238307113 
-1.393787534631924 
0.5152105634426069 
-0.03676546325018757 
0.04363580966327595 
0.0005635987158404774 
0.18377149806839 
-0.3496448205482931 
-0.04658801955835849 
1.266278278672479 
-0.736588443588141 
2.597204830037029 
-0.373681696116079 
-0.03137496415734192 
0.03672671172844078 
0.3877465406551711 
0.002618440582213974 
0.0025425740191778 
0.001852886569039678 
-0.2197112643428463 
0.1330829886512794 
0.009534507651330092 
0.009534507651330092 
-0.04954113654393532 
0.02274125194452608 
-0.0001516074020288103 
-0.0004607988524366875 
-0.0004607988524366875 
-0.003320201901359293 
0.1676353927937092 
-0.02888092932700299 
-0.005935127709623383 
-0.001629385480212959 
0.04375492289794968 
0.2006230928855742 
0.347491647866562 
0.3063142887100606 
-0.1924248885635558 
0.02841635271897346 
0.05082475667919188 
0.0437086190057091 
0 
0.2197545212887492 
-0.01895267240053522 
-0.3671175864813668 
-0.9401609104823718 
0.002392077601804152 
-0.003659240075823514 
1.985988734089009 
0.1809285419612494 
0.154769171411321 
-0.6836295124985565 
0.001273330059329707 
2.057516172163551e-005 
0.0003334902255772919 
0.1523895749930493 
-0.02100476639911309 
0 
0.07015400543001835 
0.05621506978287043 
0.05238792904449111 
-0.01354005078916899 
-0.0002200137248928314 
-0.06113508335006989 
0.02391084311045456 
0.08678962837410927 
0.1826134493487959 
0.1478264254633434 
0.00310398315186081 
-0.05882041609382339 
0.3033707311235708 
0 
0 
-5.22289324890949 
-0.03815815800827892 
0.004994538092085251 
0.004995920940654036 
0.02882564246199352 
0.3074702409684783 
-0.2597361417380967 
-0.02380646907130405 
-0.02047001191950634 
0.04375492289794968 
-0.0131447283024563 
-0.001051911246652593 
0.006689143176354552 
0.7104848398514455 
0 
0.003815057578119505 
-0.6859417098112389 
0.001910371042037871 
-0.01229009955436459 
0.008287161664215744 
-0.5286194549587951 
-0.000518748421008789 
-0.004609704494232621 
0 
-0.01726530738531544 
-0.6268157797928986 
-0.1629255468787887 
0 
0.301962578274015 
-0.00980236278218322 
-0.01936642930509052 
-0.01936642930509052 
-0.01936642930509052 
-2.495579977312582 
-0.1562388298515179 
-0.01211657144600686 
-0.1919670775866581 
0.02569442296293582 
0.802162064051158 
0.04597668764239741 
-0.005471346262490502 
-0.262317345041352 
0 
0.05068180848095957 
0 
-0.03512958750494567 
-0.1451514024500106 
0.2174479299041537 
-0.008170827968352874 
-0.0977789567434932 
-0.0001826506832665105 
8.140899248727335e-005 
0 
0.04926580905744095 
-0.001681905709112062 
-0.1440441143728704 
-0.05236250072038532 
0 
-0.1570146298188765 
-0.00769759722539124 
0 
-0.0007294273305994167 
0.1731637453780136 
0.3178221770398254 
0.06587003936813585 
-0.163593663068623 
0.2096985420826563 
-0.7966044133644142 
0.01250531991718285 
-0.6179595321201157 
-0.677940850269282 
0.02517452408613547 
0.7222968784605894 
-0.01858039881181421 
0.05857210261106988 
-0.506950489187018 
0.04375492289794968 
0 
0.3618717197384178 
-0.002285598623657784 
-0.002285598623657784 
0.02709596197031401 
-0.01614512243772886 
-0.03919017243998685 
-0.03792177749328198 
0.1590579983853261 
0.4117425214010911 
0.1568823825603013 
0.3182442193485222 
-0.431185254568657 
-0.02081408543338427 
-0.09314563970674063 
5.398052084462085e-005 
0.003601805807193583 
0.002719782804137217 
0.001154312496014556 
0.04375492289794968 
0 
0 
-0.2004381781406727 
0 
-0.2434254874108074 
0 
0 
0 
0 
0.3374696064958198 
0.02079484388402657 
-0.1966492549645702 
0.0256151006068475 
0.06133444354940941 
0.04130209295770392 
0.04130209295770392 
0.04130209295770392 
0.04130209295770392 
0.001321204451123111 
0.07427836531126342 
-0.03106353958361145 
-0.03106353958361145 
-0.03106353958361145 
0.2169462345911368 
0.206950308359048 
0.206950308359048 
0.02772123964489316 
-0.09733698064804285 
0.02484951853701021 
-0.003074830292878164 
0 
0.1603667159086784 
0 
0 
-0.2368942505994147 
-0.06178555997691136 
-0.6888415076815287 
0.1107745894481418 
-0.01351718162884604 
-0.6270426389758926 
-0.004401127809927324 
0 
-0.04025344063792061 
0.5483529072302426 
0.2093461130949143 
0.3396693921716854 
0.08227593525739244 
-0.1349665049517791 
0.02593657828852265 
-0.03218636677084983 
0.2229041568949731 
-0.03724008575434513 
0.08593715658313184 
0.002044800722221016 
-0.03756335756087785 
0.06315972338729617 
-0.1530836801969708 
-0.09294399387850799 
-0.02915047764598085 
0.4477990277316391 
0.1218972873187631 
0.5954505352942745 
-0.007176646531173621 
0 
-0.1102440109690601 
-0.08087782799471932 
0.02320198113646606 
0.0744241435520018 
0.01852580617391288 
-0.007923551070857422 
0.02829914620185439 
0 
0.2855235492180911 
0.01493258401745905 
0.7926808341373407 
-0.06626583806049129 
-0.0001846162652667203 
0 
-0.006581898337453934 
1.039638220963119 
0.0008151007041841405 
-0.2987127159571825 
-0.2987127159571825 
0.001469069365879116 
-0.0007717649619778289 
-0.06360421947105789 
-0.06360421947105789 
-0.172728409695757 
-0.5338720131913675 
-0.172728409695757 
0.3063797353830642 
